#include "stdafx.h"
#include "Array_bp.h"

float weight1_S[1764*160] = {
	-0.208594,	0.463057,	0.991577,	0.806024,	-0.927976,	0.418378,	-0.871456,	0.202490,	0.010407,	0.567003,	0.748528,	0.274514,	-0.387432,	0.465987,	0.454451,	0.389264,	-0.753349,	0.601856,	0.014557,	0.559679,	-0.078585,	-0.195227,	0.368938,	0.673452,	0.849971,	0.807428,	-0.796747,	-0.977783,	0.111118,	-0.488998,	-0.598987,	0.194922,	-0.779046,	0.520432,	0.687478,	-0.604419,	0.427290,	0.511826,	-0.222816,	-0.749016,	0.538255,	-0.005341,	-0.661794,	0.168004,	0.100192,	-0.969543,	-0.914731,	0.304361,	-0.265786,	-0.528306,	-0.686087,	0.215735,	0.446272,	-0.718192,	0.189062,	0.240638,	-0.277871,	-0.499191,	-0.900571,	-0.314127,	0.219825,	-0.582812,	-0.608264,	-0.123691,	0.872555,	0.509506,	0.795099,	0.129063,	-0.785821,	0.720267,	0.850459,	0.716910,	0.739799,	-0.376202,	-0.344279,	-0.117771,	0.113865,	0.051912,	-0.759941,	0.964171,	0.038667,	0.738456,	-0.120212,	0.701529,	0.595569,	-0.454085,	0.667470,	0.774224,	0.870846,	-0.162694,	0.648427,	-0.354900,	-0.319987,	-0.446089,	-0.164708,	0.765557,	-0.798395,	-0.436323,	0.414533,	0.206092,	0.333781,	0.840999,	-0.543687,	-0.223609,	-0.413739,	-0.959227,	-0.558336,	0.694998,	0.320109,	0.030671,	-0.082614,	-0.127110,	0.146886,	0.941588,	0.593432,	-0.127171,	-0.698782,	0.300699,	-0.806635,	0.606799,	-0.201453,	-0.190466,	0.372173,	-0.165990,	0.189612,	-0.672048,	-0.988464,	0.523118,	-0.273721,	-0.371197,	0.208289,	0.138890,	0.749321,	0.483871,	-0.734794,	-0.081759,	-0.888607,	0.644581,	-0.000763,	-0.803400,	-0.552049,	-0.720206,	0.678152,	0.847591,	-0.891903,	-0.566881,	-0.101413,	0.898251,	-0.441939,	-0.937742,	-0.281533,	0.383282,	-0.929929,	0.222694,	0.355083,	0.499191,	-0.491379,	-0.041475,	-0.237281,	-0.877804,
	-0.972961,	-0.536912,	0.401532,	-0.247902,	-0.513291,	-0.928709,	0.510056,	0.943785,	0.411359,	-0.353496,	0.194250,	-0.710013,	0.288980,	-0.075289,	-0.354045,	0.017548,	-0.965758,	0.377789,	-0.198218,	0.258644,	0.423200,	-0.840693,	0.756890,	-0.938780,	0.313089,	0.694510,	0.244179,	-0.800409,	-0.539964,	0.477340,	-0.506333,	0.848567,	0.747124,	0.637379,	0.781915,	0.183020,	-0.365581,	-0.161901,	-0.013886,	0.966735,	-0.355266,	0.070650,	0.454878,	0.190466,	-0.302957,	-0.096530,	-0.493210,	-0.175268,	-0.900449,	0.752556,	-0.128208,	-0.252480,	-0.983886,	-0.267190,	-0.614795,	-0.089267,	0.217261,	-0.344951,	-0.751030,	0.807001,	-0.071017,	-0.271340,	0.171606,	0.300150,	-0.408063,	-0.465133,	0.699393,	-0.118625,	0.343242,	-0.168249,	-0.948546,	0.413373,	0.032868,	0.753349,	0.771844,	0.425764,	0.588794,	0.966552,	-0.490707,	-0.976562,	-0.459090,	0.346843,	-0.760063,	0.470809,	0.519150,	-0.263527,	-0.757378,	0.514267,	0.535264,	0.347087,	0.141392,	-0.494675,	0.863216,	0.369244,	0.326396,	0.387799,	-0.670400,	-0.648488,	-0.933348,	0.609302,	0.826533,	-0.088046,	-0.373516,	0.022492,	-0.140599,	-0.656484,	0.698355,	-0.163671,	-0.056917,	0.676931,	-0.535569,	0.680715,	-0.342387,	-0.237159,	0.600147,	0.847041,	0.176794,	-0.063631,	0.530931,	0.766778,	0.081881,	0.825800,	-0.744072,	0.791314,	0.272988,	0.868282,	-0.949767,	0.334513,	0.790765,	0.095553,	0.358806,	-0.558580,	0.360271,	0.751213,	0.194067,	0.845332,	0.470504,	0.302652,	-0.649892,	-0.425092,	0.801569,	0.410077,	-0.254250,	0.175817,	-0.188574,	0.415082,	0.208655,	0.607044,	-0.703848,	0.911191,	0.014191,	0.875851,	0.734611,	-0.041230,	0.489547,	-0.526109,	0.231117,	-0.492538,	-0.001984,	-0.324015,
	-0.131626,	0.587756,	0.613453,	0.765191,	0.282693,	0.834285,	-0.200415,	0.245643,	0.274880,	0.904599,	-0.594592,	0.106906,	0.268105,	-0.646046,	-0.710807,	-0.799310,	-0.573290,	0.530564,	-0.115574,	0.794366,	-0.753105,	-0.948180,	-0.981017,	-0.638478,	-0.566637,	-0.573779,	-0.698294,	-0.325297,	0.872799,	0.381207,	-0.613147,	0.260414,	-0.481979,	0.461470,	-0.569388,	0.280068,	-0.005158,	0.458602,	0.050996,	-0.100253,	0.743706,	-0.764275,	-0.895016,	-0.789911,	-0.490707,	0.509201,	-0.406537,	-0.240211,	0.990295,	-0.851131,	-0.991333,	-0.235084,	-0.538804,	0.562243,	-0.565416,	-0.943785,	0.180700,	-0.279092,	0.714469,	0.827876,	0.395795,	-0.603931,	-0.003266,	0.248329,	-0.242225,	0.162389,	-0.027070,	0.998413,	0.960021,	-0.266091,	-0.881283,	-0.203589,	0.410688,	0.195166,	0.251991,	-0.025178,	-0.245827,	0.688589,	0.719535,	0.169958,	0.051424,	0.122105,	0.525376,	-0.812860,	-0.566332,	-0.541795,	-0.287393,	-0.894894,	0.041414,	0.147862,	-0.687857,	-0.320109,	-0.939695,	0.271462,	-0.830195,	0.113010,	-0.331767,	0.949034,	0.965575,	-0.755181,	0.704031,	0.582751,	-0.264382,	0.236915,	0.872066,	-0.505844,	0.212134,	0.804010,	0.294168,	0.517808,	-0.709159,	-0.939512,	-0.778069,	0.114780,	0.940794,	0.042146,	0.721427,	-0.431440,	0.867244,	0.965697,	-0.856990,	0.824946,	-0.758171,	0.289956,	-0.810785,	0.538987,	0.810968,	0.640004,	-0.607532,	0.891964,	0.696036,	0.656667,	0.815363,	0.739921,	-0.802911,	-0.165075,	0.786431,	-0.343303,	-0.086276,	-0.587207,	0.483322,	0.434675,	0.493637,	-0.626576,	0.176244,	0.603870,	0.323832,	0.623219,	0.944090,	0.534349,	0.475143,	0.407819,	0.675466,	0.682119,	0.212928,	0.029572,	-0.832270,	-0.457137,	-0.612598,	0.927488,
	0.136021,	0.874630,	-0.985595,	0.183508,	0.944884,	-0.247353,	-0.638844,	-0.483139,	-0.125034,	0.019257,	-0.152623,	0.829218,	-0.261940,	0.689810,	0.076205,	0.363140,	-0.348979,	-0.121006,	0.305765,	0.536363,	-0.216224,	-0.190893,	0.675405,	-0.485885,	0.891171,	-0.537828,	-0.502548,	-0.417219,	-0.556444,	0.439924,	-0.071078,	0.386090,	0.166967,	0.592761,	-0.666616,	0.087558,	0.805902,	0.981079,	0.648122,	0.521409,	0.921506,	0.730705,	0.066439,	-0.606555,	-0.462508,	-0.653920,	0.349712,	-0.403546,	-0.554308,	-0.957762,	0.080538,	0.700064,	0.985168,	0.659108,	0.169774,	0.679678,	-0.894955,	-0.279702,	-0.070040,	0.946348,	0.526963,	0.199377,	0.027802,	0.739006,	0.815851,	0.554735,	0.628040,	-0.056368,	0.174352,	-0.402753,	0.040925,	0.399823,	-0.227882,	0.752434,	0.186499,	0.758476,	-0.576952,	0.279092,	0.187658,	0.952879,	0.422101,	0.008087,	0.404462,	-0.654775,	0.355266,	0.162816,	0.222327,	0.611927,	-0.305399,	0.824213,	-0.092746,	-0.570910,	0.990783,	-0.397076,	-0.161168,	0.021760,	0.475753,	0.081210,	-0.564135,	0.638844,	0.888607,	0.586230,	-0.915097,	-0.984191,	-0.664418,	-0.141575,	-0.614124,	-0.110569,	0.998840,	-0.823237,	-0.973876,	0.624134,	0.504440,	-0.496384,	-0.403729,	0.015351,	-0.236183,	-0.788629,	0.659841,	0.330912,	0.099704,	0.953917,	-0.611133,	-0.347209,	-0.529954,	-0.755181,	0.079379,	0.582690,	0.602283,	-0.694327,	-0.142918,	0.372906,	0.849544,	0.745354,	-0.111850,	0.545885,	-0.417035,	0.635121,	0.405316,	-0.935667,	-0.068819,	-0.460372,	0.863643,	-0.885311,	0.679617,	-0.931639,	-0.462508,	-0.433637,	-0.857051,	0.508530,	-0.128636,	-0.830927,	0.822871,	-0.897824,	-0.103183,	-0.448592,	0.662771,	-0.468123,	0.029084,	-0.917783,
	-0.286599,	-0.826228,	-0.445723,	0.658010,	0.020478,	0.684500,	-0.879086,	-0.521470,	-0.451888,	0.481368,	-0.452132,	-0.126560,	-0.050752,	0.680654,	0.261147,	-0.758476,	0.996887,	-0.945555,	-0.328104,	0.166784,	0.487289,	0.570238,	0.808588,	0.771661,	-0.571032,	-0.925718,	0.515549,	0.371685,	-0.670949,	0.683279,	-0.469649,	0.493698,	-0.610279,	-0.556078,	-0.247536,	0.318949,	0.427412,	0.825922,	0.016144,	0.615223,	-0.672903,	-0.391339,	0.679495,	-0.780450,	0.844539,	-0.274697,	0.342326,	0.134007,	0.568102,	0.626392,	-0.994201,	-0.702506,	-0.146092,	-0.274880,	0.985717,	-0.904111,	0.545518,	-0.512192,	-0.107944,	0.672536,	0.291788,	0.730705,	0.987915,	0.102634,	0.274392,	0.686880,	-0.760735,	-0.507187,	0.158666,	-0.595447,	0.369305,	-0.930418,	0.078646,	-0.959105,	-0.771783,	-0.681936,	0.470931,	-0.388409,	0.793146,	-0.766045,	-0.432417,	-0.238868,	0.108127,	-0.247963,	-0.637562,	0.114353,	0.479354,	0.412030,	-0.137608,	-0.227088,	0.235755,	0.325663,	0.436079,	-0.481552,	-0.630970,	-0.492843,	0.072909,	0.285867,	0.364910,	-0.370586,	-0.634938,	0.467818,	0.538255,	0.268044,	0.023957,	0.614551,	0.184912,	-0.303262,	0.745048,	-0.910031,	-0.137974,	0.295877,	-0.767876,	-0.751640,	-0.889889,	-0.363689,	-0.804926,	-0.308451,	-0.071322,	-0.697623,	0.132054,	0.172277,	-0.681326,	0.515061,	0.709708,	0.703299,	0.203589,	0.618091,	-0.446699,	0.436811,	-0.958251,	-0.509079,	0.260048,	-0.124485,	-0.556627,	-0.050752,	0.446760,	0.978454,	0.102695,	-0.804010,	-0.354228,	0.723563,	0.360210,	-0.613514,	-0.138951,	0.690054,	-0.294290,	0.368755,	-0.403607,	0.222816,	0.535386,	0.662221,	-0.830561,	-0.258889,	0.475265,	-0.262734,	0.122959,	-0.245643,	-0.416303,	-0.341655,
	0.546251,	0.147923,	0.745170,	-0.847957,	-0.880490,	-0.700003,	0.567675,	0.164464,	-0.306864,	-0.405927,	-0.902707,	-0.031404,	-0.785272,	0.887692,	-0.338908,	0.885373,	0.816218,	0.500839,	-0.848811,	0.680349,	0.873592,	-0.713248,	0.063570,	-0.301187,	-0.147923,	0.347087,	0.602527,	-0.198462,	-0.251381,	-0.046480,	0.164342,	-0.836299,	-0.055269,	-0.760002,	0.512558,	0.000031,	0.281777,	0.226173,	-0.043550,	-0.722526,	-0.828120,	0.735404,	0.847041,	-0.520127,	-0.444075,	-0.229652,	-0.299234,	-0.515732,	0.521897,	-0.092380,	0.265481,	0.614551,	-0.603809,	0.274514,	0.839961,	-0.067660,	0.119785,	0.670339,	0.159886,	-0.170690,	0.721915,	0.394940,	-0.837336,	-0.017670,	-0.295694,	0.346477,	0.944029,	0.734489,	0.147801,	-0.048677,	0.217689,	-0.035310,	-0.645863,	-0.511216,	0.592578,	0.507736,	0.835810,	-0.627857,	0.977782,	0.187719,	0.464888,	0.950133,	-0.570177,	-0.472701,	-0.403607,	0.389630,	-0.246376,	-0.804743,	0.975097,	0.203528,	-0.830744,	0.254799,	0.240577,	-0.014679,	0.358562,	-0.725272,	0.843074,	0.913022,	0.202246,	-0.632374,	-0.819147,	-0.414594,	0.521836,	-0.785394,	-0.226356,	-0.246864,	-0.862972,	-0.857662,	-0.716727,	-0.494064,	0.553087,	0.312479,	-0.805475,	0.480270,	0.588183,	0.087130,	-0.031159,	0.648244,	0.256325,	-0.367351,	0.482833,	-0.748100,	-0.784722,	0.824458,	-0.435163,	-0.556078,	0.094211,	0.514267,	-0.558458,	-0.802118,	0.012299,	-0.775750,	-0.093112,	0.050752,	0.601672,	0.328776,	-0.973449,	0.239967,	0.846309,	0.786798,	-0.809992,	-0.202612,	0.050264,	-0.511948,	0.322672,	0.162633,	-0.753166,	0.274880,	-0.929441,	-0.121006,	0.362224,	-0.298013,	-0.229469,	0.933164,	-0.555162,	0.597400,	0.017548,	-0.697439,	-0.725578,	-0.513657,
	0.642933,	0.272012,	-0.338237,	0.941588,	0.914304,	0.082186,	0.752678,	0.920835,	0.771600,	0.473189,	-0.351482,	0.156163,	0.910031,	-0.315714,	-0.344646,	-0.343730,	0.523606,	0.474349,	0.474654,	-0.615955,	-0.478683,	0.723014,	0.647877,	0.173254,	-0.971923,	-0.822626,	0.567431,	-0.054842,	0.983947,	-0.094577,	-0.633473,	0.289285,	0.652638,	0.018647,	0.000763,	0.469222,	0.853938,	0.227149,	-0.167211,	0.916990,	-0.270119,	0.789117,	-0.965636,	-0.721610,	0.859676,	0.417280,	0.116916,	-0.928465,	-0.465865,	0.704886,	0.903012,	0.020661,	0.003143,	-0.366192,	0.252541,	0.129002,	-0.491989,	0.727348,	0.854976,	0.551988,	-0.088351,	-0.590747,	0.400311,	-0.666372,	0.738823,	-0.866451,	-0.558153,	-0.930662,	0.439131,	0.845454,	-0.737663,	0.556078,	-0.314859,	0.336772,	0.057222,	-0.506149,	-0.481979,	-0.940794,	0.745964,	0.300821,	0.153600,	0.956298,	0.725639,	0.103122,	-0.739311,	0.877682,	0.877804,	0.964293,	-0.474837,	-0.861934,	0.141942,	-0.585742,	0.311014,	-0.216773,	0.968078,	-0.657399,	-0.768059,	-0.874874,	-0.039827,	-0.683218,	0.445845,	0.109470,	-0.975646,	0.389386,	-0.516465,	-0.922422,	-0.667409,	-0.544664,	-0.573412,	0.485702,	-0.584033,	0.223365,	0.243812,	0.143162,	-0.301004,	0.862423,	0.101169,	0.533067,	0.787896,	0.386578,	0.457076,	0.777398,	-0.174657,	0.841243,	-0.245216,	0.809259,	0.224464,	-0.648244,	-0.474776,	0.314127,	-0.906735,	-0.901303,	-0.287637,	0.003998,	-0.335856,	-0.719352,	-0.966124,	-0.214576,	-0.961119,	-0.871883,	-0.810602,	-0.615345,	0.563158,	0.031220,	0.729057,	-0.007477,	-0.858150,	0.841914,	-0.605945,	0.491134,	0.809381,	0.415937,	0.743644,	0.825434,	0.864681,	0.454390,	-0.121738,	0.081332,	-0.113132,	0.709403,
	0.074190,	-0.166234,	-0.058687,	-0.385174,	-0.860347,	0.326518,	0.289712,	0.406171,	-0.692740,	0.046785,	0.916807,	-0.209815,	-0.527024,	0.256630,	-0.814203,	-0.771355,	-0.403851,	-0.956114,	-0.064303,	-0.102390,	0.071566,	0.455550,	0.331523,	-0.615223,	-0.112766,	-0.725211,	-0.218116,	-0.812189,	0.379131,	-0.993652,	0.235145,	-0.924070,	0.396832,	-0.370098,	-0.833125,	-0.622669,	-0.308939,	0.686819,	0.571398,	-0.745293,	0.337382,	0.260537,	0.269387,	0.031709,	-0.993774,	-0.585498,	0.845210,	-0.367351,	-0.105564,	0.649464,	0.524277,	-0.801935,	-0.871639,	-0.057649,	-0.694082,	-0.061739,	0.452925,	0.930845,	0.661428,	-0.711905,	-0.982360,	0.803583,	0.111423,	0.424726,	-0.926328,	0.460921,	0.995056,	0.210913,	0.392498,	0.507309,	0.742058,	-0.372478,	-0.779595,	-0.361858,	-0.037446,	-0.244423,	0.580737,	0.983947,	-0.335368,	-0.627430,	-0.264260,	0.973571,	0.913938,	-0.775933,	-0.378521,	0.280190,	0.246803,	-0.966186,	0.068026,	-0.589038,	-0.849788,	0.314432,	-0.383343,	0.504624,	0.920652,	-0.958739,	-0.252052,	-0.102512,	-0.786676,	-0.747185,	0.332316,	-0.977233,	-0.402814,	-0.361614,	0.115146,	0.203528,	0.424482,	0.177160,	-0.949522,	0.902768,	0.330363,	0.890378,	0.294351,	0.993469,	0.673513,	-0.230750,	0.670705,	0.610218,	0.230689,	-0.058443,	-0.577441,	-0.854427,	0.457930,	-0.861812,	0.061312,	0.953795,	0.629994,	-0.476241,	-0.874874,	0.322977,	-0.827998,	0.952757,	0.661367,	-0.719352,	0.494736,	-0.286477,	0.242653,	0.793085,	-0.354167,	-0.175817,	-0.668081,	0.921506,	0.090732,	0.940306,	-0.192908,	0.498520,	0.934385,	-0.060518,	-0.542039,	-0.114109,	0.896909,	0.243934,	0.268960,	-0.622669,	-0.643727,	-0.056368,	0.299356,	0.807855,	-0.230811,	0.782952,
	0.973327,	0.933226,	-0.216468,	-0.927183,	0.593066,	0.140843,	-0.645009,	0.591846,	-0.113376,	-0.944273,	-0.820124,	0.537156,	0.404218,	0.603198,	0.756951,	0.589343,	-0.426679,	0.090915,	0.390362,	0.153172,	-0.772027,	0.873592,	0.447005,	-0.164037,	-0.577868,	0.161290,	0.179968,	0.227271,	0.341105,	0.536058,	-0.569323,	0.041780,	0.123020,	-0.263588,	-0.476913,	0.687918,	-0.596789,	0.275552,	0.661000,	-0.675527,	0.393414,	-0.547105,	0.142369,	-0.531297,	-0.691336,	-0.676748,	0.702445,	-0.783135,	-0.045198,	-0.814875,	-0.702200,	0.141331,	-0.712088,	0.151646,	-0.354839,	0.925169,	0.759636,	0.365215,	0.825800,	0.798151,	0.259316,	0.420026,	-0.730827,	0.836055,	0.467391,	-0.446577,	0.428205,	0.185034,	0.430341,	0.169835,	-0.541978,	-0.724784,	0.171484,	-0.741447,	-0.788568,	-0.915708,	-0.850642,	0.269753,	0.863277,	0.514878,	0.375896,	0.008332,	-0.524400,	0.947447,	-0.992615,	0.111362,	-0.181921,	0.031526,	-0.778802,	-0.330729,	0.753349,	-0.222083,	0.189184,	0.554125,	-0.498032,	-0.986206,	0.961913,	0.017609,	0.099033,	-0.735954,	-0.924863,	0.120884,	-0.645924,	0.120396,	0.692251,	0.559191,	0.627979,	-0.838252,	-0.907163,	0.443159,	0.737968,	0.487655,	-0.676687,	-0.400128,	0.305094,	0.927427,	-0.181494,	0.956298,	0.854976,	-0.012360,	0.809442,	0.566088,	0.984558,	0.600635,	0.328532,	0.845027,	0.908872,	0.735771,	-0.375408,	-0.425336,	-0.301859,	0.937132,	0.801202,	0.238685,	0.519639,	-0.151280,	0.489242,	0.253578,	0.194983,	0.791376,	0.368084,	0.656362,	0.387555,	-0.547899,	0.346538,	-0.188025,	0.730155,	-0.250282,	-0.784173,	0.702506,	-0.792718,	-0.061495,	0.589282,	0.360881,	0.103855,	0.012848,	0.937559,	-0.988037,	0.832087,	0.475082,
	-0.463851,	-0.517075,	-0.049348,	-0.471114,	-0.865841,	0.445540,	-0.312601,	0.761467,	-0.841365,	0.053194,	-0.721732,	0.376019,	0.266640,	-0.465011,	0.435591,	0.037629,	0.057222,	-0.690848,	-0.743034,	0.395306,	0.756706,	-0.821345,	-0.110630,	-0.658437,	0.688040,	-0.828730,	0.258278,	0.073702,	0.339030,	0.586779,	-0.823603,	-0.982727,	0.839656,	-0.186804,	-0.855892,	0.676687,	-0.337382,	0.476302,	0.152928,	-0.527573,	-0.640736,	0.481979,	0.806207,	-0.369060,	0.142369,	-0.483077,	0.068087,	-0.813898,	0.129795,	-0.431623,	-0.045442,	-0.842402,	0.060457,	0.025910,	0.477889,	-0.032991,	0.295816,	-0.072420,	-0.842769,	0.154759,	0.918210,	0.913572,	0.409223,	-0.539354,	0.740532,	-0.551195,	-0.871334,	-0.669973,	0.037385,	-0.121616,	-0.225868,	0.907895,	0.812311,	0.876400,	-0.730766,	-0.415937,	-0.588061,	0.852779,	-0.966430,	0.152013,	-0.699026,	0.879330,	0.454268,	-0.357341,	0.809503,	0.697806,	-0.888180,	-0.102817,	-0.335063,	0.372356,	0.072787,	0.940062,	-0.877194,	-0.850948,	-0.439802,	-0.784234,	-0.493088,	0.085543,	-0.683096,	-0.248634,	-0.028230,	0.011628,	0.971374,	0.306558,	0.301309,	-0.614734,	0.720878,	0.575732,	-0.445784,	-0.394635,	-0.356853,	0.502182,	-0.629810,	0.343974,	-0.050203,	0.768914,	0.748283,	0.460494,	0.493088,	-0.472823,	0.110385,	-0.939268,	-0.160680,	0.426191,	-0.536790,	0.262673,	0.221717,	0.005829,	0.469405,	0.231727,	0.683950,	-0.484787,	-0.758293,	0.048372,	0.727592,	-0.780267,	-0.327433,	0.970153,	0.776605,	0.258705,	0.110874,	-0.349712,	0.770379,	0.116001,	-0.800775,	-0.123203,	-0.802362,	0.767266,	-0.316080,	0.392560,	-0.114414,	-0.435469,	0.009613,	-0.639515,	0.853877,	-0.077670,	0.512070,	-0.964049,	0.548570,	-0.133641,
	0.021027,	-0.791925,	-0.232704,	-0.491134,	-0.314432,	0.973571,	0.588122,	-0.488754,	-0.165258,	-0.595141,	0.614795,	-0.401715,	0.685781,	0.675588,	-0.148900,	-0.814692,	0.712394,	0.204993,	0.516648,	-0.818903,	-0.513840,	-0.614917,	-0.883847,	-0.970824,	0.802606,	-0.548204,	-0.924192,	0.049898,	0.904660,	0.063265,	-0.742119,	-0.854366,	-0.382611,	-0.852046,	0.667165,	-0.067965,	-0.795770,	-0.415571,	0.661000,	-0.642750,	0.759087,	-0.724113,	0.976135,	0.872494,	0.945433,	0.181616,	0.884030,	0.214637,	0.896481,	0.868099,	-0.211951,	0.866634,	0.087130,	0.141819,	0.573901,	-0.746208,	0.991699,	0.327311,	0.027253,	0.743156,	-0.661367,	-0.248695,	-0.370342,	0.504257,	-0.223487,	0.997192,	-0.953978,	0.296915,	-0.238929,	0.490951,	-0.383526,	-0.753349,	-0.520859,	-0.017853,	0.163732,	-0.328593,	0.618885,	-0.518601,	0.430158,	0.020783,	-0.199255,	0.217994,	0.455733,	-0.007965,	-0.518662,	-0.821284,	-0.789544,	-0.116733,	0.141819,	-0.207862,	0.792596,	-0.751457,	0.574450,	0.319315,	-0.494003,	0.915342,	0.078951,	0.514023,	0.129185,	-0.571886,	-0.618030,	0.115452,	0.687674,	-0.019379,	0.091281,	-0.264992,	0.043489,	0.898068,	-0.502365,	-0.299478,	-0.387066,	-0.266823,	0.537156,	-0.580615,	-0.473922,	0.038423,	-0.273965,	0.824519,	0.540086,	0.875179,	0.880612,	0.464095,	0.018830,	0.125217,	-0.565355,	-0.201025,	-0.708182,	-0.335490,	-0.832209,	0.269265,	0.704031,	-0.537034,	0.155370,	0.692801,	-0.330180,	0.672964,	-0.245888,	-0.441511,	0.043550,	0.767632,	-0.564318,	-0.223121,	0.118564,	0.793756,	-0.720084,	0.449324,	-0.432051,	-0.200842,	0.940794,	-0.779778,	0.639332,	0.499496,	0.897824,	-0.226783,	-0.084628,	-0.755303,	0.804682,	0.034639,	-0.045686,	0.349956,
	0.748711,	-0.353801,	-0.879330,	-0.148778,	0.232032,	0.270302,	0.920957,	0.749931,	0.688833,	-0.711051,	-0.845393,	0.808100,	0.349589,	0.460982,	0.195471,	0.956847,	-0.734123,	0.097324,	0.712699,	-0.619678,	-0.692312,	0.319559,	0.147374,	-0.661245,	0.945921,	-0.037690,	0.254311,	-0.208838,	-0.367840,	0.682974,	-0.976684,	0.882382,	-0.410443,	0.840754,	-0.708121,	-0.645131,	-0.174596,	0.707877,	-0.638661,	-0.049776,	0.179113,	-0.424604,	-0.070040,	-0.140355,	0.218238,	0.315836,	0.654653,	0.289285,	0.794366,	-0.034577,	0.654103,	0.200293,	-0.928526,	-0.111484,	0.265908,	0.288003,	0.839900,	0.086398,	0.369976,	0.261147,	0.927427,	-0.786859,	0.591174,	-0.515244,	-0.478927,	0.861080,	0.692679,	0.048860,	-0.788690,	-0.322123,	0.474044,	0.325297,	0.571154,	-0.120823,	0.485275,	0.075289,	-0.916807,	-0.283120,	0.869747,	-0.829463,	-0.772881,	0.468184,	0.648549,	0.990051,	0.539232,	-0.494247,	0.759087,	0.554796,	-0.542894,	0.013276,	-0.840571,	0.463729,	-0.236854,	0.907102,	-0.687490,	0.692923,	-0.563707,	-0.472030,	0.360515,	-0.679739,	0.728263,	0.665212,	0.304361,	0.238746,	-0.726371,	0.474227,	0.498764,	0.920225,	-0.951537,	0.852168,	0.776727,	0.292581,	0.988647,	0.832636,	-0.485153,	-0.207007,	0.080477,	0.562487,	-0.046480,	-0.340983,	0.737663,	0.423078,	-0.917844,	-0.479598,	-0.725394,	0.858882,	0.404706,	-0.645131,	-0.709281,	-0.525132,	0.895688,	-0.131199,	0.776971,	0.967223,	-0.539781,	0.366924,	0.757805,	0.446944,	-0.788812,	-0.827815,	0.280618,	-0.277932,	0.874142,	0.659719,	-0.434492,	-0.901669,	-0.365520,	-0.034822,	0.127476,	0.262185,	0.738456,	-0.566698,	-0.316141,	0.808527,	0.160070,	-0.134617,	0.659658,	-0.024751,	-0.352458,	0.631336,
	0.102451,	0.147496,	0.460677,	-0.293313,	-0.179113,	-0.306375,	-0.887936,	-0.301431,	0.557299,	-0.303690,	-0.574267,	0.921812,	-0.991455,	0.139744,	0.222999,	-0.411237,	-0.492782,	0.117405,	0.951170,	0.175024,	-0.825190,	-0.378948,	0.565477,	0.022675,	0.360698,	-0.525315,	-0.022309,	-0.754814,	-0.821650,	0.975524,	-0.616688,	-0.004547,	-0.047945,	-0.195898,	0.780633,	0.158666,	0.385907,	-0.233009,	0.992920,	-0.465011,	-0.731742,	0.933775,	-0.491867,	-0.428327,	-0.476180,	-0.269448,	0.446882,	0.709342,	0.425520,	-0.445723,	0.971252,	0.403424,	-0.220374,	-0.532395,	-0.551195,	-0.115452,	-0.104404,	-0.460677,	-0.318033,	0.718986,	0.153661,	0.391400,	0.516831,	-0.767205,	-0.017365,	-0.484481,	-0.856990,	-0.138096,	-0.939634,	-0.077853,	-0.602100,	-0.510117,	0.549547,	-0.316874,	-0.613330,	-0.162816,	0.180456,	-0.067415,	-0.268227,	-0.036897,	0.994751,	-0.113865,	0.763665,	-0.056124,	0.561571,	0.443098,	-0.034944,	-0.210974,	0.478500,	0.932676,	-0.017609,	0.658254,	0.970702,	0.567125,	0.515366,	0.441633,	0.399701,	-0.834895,	0.398175,	0.766167,	0.495285,	0.706412,	-0.814875,	-0.510422,	-0.877804,	0.280984,	0.551988,	-0.253822,	-0.605152,	-0.003754,	0.826289,	-0.395428,	0.951720,	0.402448,	0.959655,	-0.597644,	0.202673,	-0.998962,	-0.746635,	0.818720,	-0.638173,	0.397198,	-0.849117,	0.747124,	-0.922788,	-0.340556,	-0.591418,	0.032502,	0.471358,	-0.551378,	0.958556,	0.133518,	-0.596179,	0.479598,	-0.224952,	-0.227149,	0.770012,	-0.123875,	0.057344,	0.639027,	-0.353862,	0.984558,	-0.958678,	0.200659,	-0.904355,	-0.794794,	-0.246864,	0.697379,	-0.552355,	-0.592456,	-0.984497,	0.368450,	0.860652,	-0.511704,	-0.978027,	-0.017914,	-0.016388,	-0.362468,	-0.211097,	0.728629,
	0.528123,	-0.125584,	0.799249,	0.538865,	0.562059,	-0.585925,	-0.849605,	0.890988,	0.339091,	0.430036,	0.518418,	-0.831538,	-0.524277,	-0.227088,	0.250648,	0.630665,	-0.711478,	-0.790887,	0.900449,	-0.940245,	-0.896359,	-0.258705,	-0.484481,	0.145848,	0.352214,	0.573534,	0.992676,	0.672353,	-0.737541,	0.283242,	0.811090,	-0.434492,	-0.036897,	0.763237,	-0.542100,	-0.130772,	0.808222,	-0.505173,	-0.143223,	-0.292337,	-0.261879,	0.716666,	0.113498,	-0.700125,	-0.512314,	-0.950560,	0.890072,	0.086581,	0.454573,	0.141148,	-0.279580,	-0.966979,	0.040254,	-0.106601,	-0.419843,	0.170873,	0.276528,	0.833125,	0.022309,	0.439436,	0.549181,	-0.809259,	0.192419,	-0.108493,	-0.768120,	-0.751701,	0.034577,	-0.675649,	-0.956786,	0.519089,	-0.998047,	-0.600757,	-0.061617,	0.322367,	0.583300,	0.311136,	0.348491,	-0.685415,	-0.041841,	0.072726,	0.580554,	0.540818,	-0.905576,	0.473251,	-0.810419,	-0.432661,	0.598559,	0.776177,	0.136082,	0.259682,	0.633045,	0.217444,	-0.458663,	-0.233253,	0.212622,	-0.632923,	-0.147496,	-0.724479,	-0.808161,	-0.583422,	0.230506,	0.096835,	0.256386,	-0.545579,	0.973510,	-0.353923,	-0.769097,	0.792596,	0.787225,	0.881344,	-0.983947,	0.406049,	0.715934,	-0.239784,	-0.533677,	0.548692,	-0.453719,	0.279397,	0.522324,	0.606616,	0.495834,	-0.341594,	0.909177,	0.252907,	-0.000641,	-0.769463,	-0.285928,	-0.034516,	0.405499,	-0.396771,	-0.845149,	-0.029450,	-0.604114,	-0.349712,	-0.147008,	-0.325480,	-0.060335,	-0.100681,	0.922300,	0.646962,	-0.404828,	-0.124851,	0.187292,	-0.784112,	0.972411,	-0.036103,	0.842402,	-0.259621,	0.167516,	-0.641957,	-0.134434,	0.619800,	0.983154,	0.647084,	0.497726,	0.105014,	-0.254128,	0.613941,	0.101474,	-0.027680,
	0.533982,	-0.197851,	-0.288736,	0.123386,	-0.372173,	0.414472,	0.587207,	0.173315,	0.995666,	-0.894162,	0.085482,	-0.910459,	-0.373455,	0.234046,	0.157750,	0.944273,	0.524277,	0.128880,	0.791559,	-0.158238,	0.172826,	-0.055452,	-0.294900,	0.085726,	0.288003,	-0.344279,	0.608264,	0.645253,	0.666250,	0.760979,	-0.657826,	-0.014313,	0.943541,	0.255592,	0.211035,	0.324870,	0.077120,	-0.563402,	-0.183142,	-0.622974,	-0.637501,	0.102329,	0.711295,	0.648427,	-0.202185,	-0.291543,	0.176122,	0.345378,	-0.391583,	0.044710,	0.445112,	-0.041108,	0.744438,	0.992431,	-0.319987,	0.586962,	0.162877,	-0.072909,	0.012604,	0.057711,	0.708182,	0.328532,	-0.034028,	0.916379,	-0.597888,	0.159398,	-0.433149,	0.337199,	-0.042817,	-0.423322,	-0.537584,	0.024506,	-0.675954,	0.537462,	0.352885,	-0.836360,	-0.912107,	-0.138524,	0.053377,	0.486251,	-0.475814,	0.313517,	0.496933,	0.510117,	-0.873165,	-0.732292,	-0.008026,	0.018403,	-0.577380,	-0.483627,	-0.954650,	-0.160985,	-0.118137,	-0.214148,	-0.934996,	-0.012665,	0.740471,	-0.478195,	0.253761,	-0.764946,	0.543870,	-0.493026,	0.006806,	-0.833125,	0.226417,	0.872799,	0.126011,	-0.211768,	0.538438,	0.068514,	0.162999,	0.746269,	0.633351,	0.349773,	-0.796625,	-0.773553,	0.627369,	-0.650868,	-0.594897,	0.587695,	-0.055269,	-0.708792,	-0.396527,	0.798212,	0.260109,	-0.585437,	0.294290,	0.734367,	0.851558,	-0.836360,	0.309427,	-0.594348,	-0.824458,	-0.287637,	0.495407,	0.168065,	0.478317,	0.382183,	0.708975,	0.987548,	-0.746696,	-0.482467,	-0.558885,	0.817316,	0.360149,	0.380596,	0.383282,	-0.848689,	0.615528,	-0.372173,	-0.753899,	0.814875,	0.669179,	0.931822,	-0.853694,	-0.943114,	-0.021760,	-0.690970,	-0.129063,	-0.994507,
	0.690909,	0.718314,	-0.666128,	0.548814,	-0.746879,	0.490219,	0.536119,	0.704276,	-0.449141,	-0.847896,	0.342326,	0.539171,	0.399091,	-0.790948,	-0.613758,	0.703787,	-0.808466,	-0.554613,	-0.582080,	0.640675,	0.523423,	0.307352,	-0.595874,	-0.467696,	-0.401654,	0.930845,	0.696036,	0.049165,	-0.766167,	-0.624073,	0.574816,	0.961486,	0.276589,	0.631459,	0.489730,	-0.323466,	0.240028,	-0.049593,	0.299356,	0.764275,	-0.022126,	0.081454,	0.829401,	-0.466353,	-0.795343,	-0.043855,	0.059420,	0.722587,	0.676809,	-0.603565,	-0.748772,	-0.637013,	-0.154271,	-0.596179,	0.330912,	-0.114902,	-0.202796,	0.593432,	0.836970,	0.521592,	0.287393,	-0.665456,	-0.251869,	-0.924619,	0.689260,	0.161412,	0.502121,	-0.886349,	-0.337931,	0.015290,	0.518113,	0.649342,	-0.644520,	0.881710,	-0.464156,	0.373760,	0.961730,	0.384197,	0.084140,	-0.496994,	-0.572375,	0.898129,	0.389630,	0.299234,	0.139561,	0.745842,	-0.959593,	-0.669179,	-0.606799,	0.037263,	-0.283914,	0.533250,	-0.538560,	0.716544,	-0.704276,	0.132908,	0.071932,	-0.621021,	-0.341411,	0.497421,	-0.892392,	0.419782,	0.487655,	0.973205,	0.342387,	0.076754,	-0.609973,	0.774895,	-0.975890,	0.931272,	0.646474,	-0.012909,	-0.881527,	-0.572497,	0.901791,	-0.257118,	-0.975463,	-0.025422,	-0.890561,	-0.360576,	-0.423750,	0.192541,	-0.957091,	-0.544359,	-0.858699,	0.866268,	-0.315104,	-0.767876,	-0.369854,	-0.832453,	-0.190710,	0.777398,	0.227576,	0.711112,	0.065951,	0.662221,	0.659719,	-0.997070,	0.882565,	-0.235267,	0.808466,	-0.152257,	-0.505112,	-0.570849,	0.486129,	-0.725822,	0.419172,	-0.700186,	0.182836,	0.543565,	0.677236,	0.893490,	0.598865,	0.801996,	0.089450,	-0.026948,	-0.225196,	0.940306,	-0.054598,	-0.216224,
	-0.367962,	-0.777154,	0.366802,	0.215918,	0.735343,	0.249245,	-0.326518,	0.955077,	-0.908811,	-0.190649,	0.066683,	-0.316263,	-0.206336,	-0.803339,	0.940611,	-0.603870,	-0.670156,	-0.459822,	0.135533,	-0.111484,	-0.640980,	-0.281045,	0.445235,	-0.512070,	-0.224158,	0.420698,	-0.309915,	0.081881,	-0.127842,	-0.092013,	-0.330424,	-0.489059,	-0.591906,	0.053255,	0.306192,	0.387616,	0.406781,	0.206580,	0.293069,	-0.596973,	-0.516892,	-0.542650,	0.558092,	0.184667,	-0.478744,	0.853572,	-0.143101,	-0.232582,	0.511582,	0.140110,	0.807367,	-0.259987,	0.360271,	0.579394,	-0.322245,	0.130406,	-0.515244,	0.416425,	0.241859,	-0.908750,	0.006073,	0.551073,	-0.987915,	0.449263,	-0.648549,	0.979492,	0.165075,	0.179724,	-0.919797,	-0.432173,	-0.529832,	-0.130100,	0.744072,	-0.279214,	-0.464949,	0.232948,	-0.404706,	0.506394,	-0.320048,	0.734855,	-0.044527,	-0.199072,	0.753349,	0.397748,	-0.943785,	0.015900,	0.201453,	-0.159154,	-0.834468,	0.969298,	-0.295816,	-0.377178,	0.811884,	-0.536302,	0.690359,	0.946959,	0.917722,	0.134800,	0.043611,	-0.208045,	0.656667,	-0.869503,	-0.687307,	0.532029,	0.845271,	-0.813837,	-0.261696,	0.106296,	-0.317728,	-0.344401,	0.408368,	0.802850,	0.648488,	0.062227,	-0.145054,	0.717582,	-0.621082,	0.732170,	0.405377,	-0.048250,	-0.679434,	-0.928098,	-0.400922,	-0.389386,	0.987243,	-0.947264,	-0.015900,	-0.335490,	0.624805,	0.465072,	-0.395734,	0.736564,	-0.900632,	-0.495590,	0.491012,	-0.121982,	0.820429,	-0.747612,	-0.528977,	-0.604907,	-0.488876,	-0.385785,	0.603015,	0.788324,	0.639821,	-0.723991,	-0.444014,	0.868038,	-0.676931,	-0.755730,	-0.758721,	0.108249,	-0.485153,	0.529588,	-0.988952,	0.301248,	-0.707572,	-0.462630,	0.735588,	-0.424787,
	0.053316,	-0.271401,	0.072237,	-0.161901,	0.434309,	-0.888058,	0.238075,	0.709281,	0.765679,	0.130955,	0.598926,	-0.997803,	0.873409,	-0.492233,	-0.612476,	-0.179357,	-0.958678,	0.606983,	0.862850,	0.330058,	0.945860,	-0.119053,	0.223365,	0.267739,	0.375774,	-0.040071,	0.587023,	0.253700,	0.550279,	0.949339,	-0.650380,	-0.035310,	-0.153600,	0.496200,	0.235145,	-0.766045,	0.749748,	0.187963,	0.349284,	0.139500,	-0.160314,	0.845698,	0.550279,	-0.857051,	-0.376873,	0.274209,	0.447920,	-0.658254,	0.027436,	0.032014,	0.344279,	-0.102878,	0.366741,	0.783135,	-0.571825,	0.700308,	-0.406720,	0.793146,	0.536424,	-0.660390,	-0.354045,	-0.867183,	0.793573,	0.431013,	-0.290384,	0.151097,	0.442976,	0.373760,	0.196631,	0.779778,	-0.817499,	-0.405011,	0.263772,	-0.767022,	0.315775,	-0.654836,	-0.323283,	0.663991,	0.032746,	-0.893979,	0.834834,	0.340800,	0.131687,	-0.324870,	-0.232032,	-0.095492,	-0.505051,	-0.011628,	-0.080172,	-0.728202,	0.631336,	0.743156,	-0.472701,	-0.255348,	0.597034,	0.884945,	0.410993,	0.889218,	0.608448,	0.019684,	0.988403,	0.747307,	-0.341777,	0.814570,	-0.678457,	-0.058138,	0.448653,	0.449141,	-0.986694,	-0.759880,	0.953063,	-0.819697,	-0.237220,	-0.864742,	-0.081088,	-0.917356,	-0.605823,	-0.988830,	-0.374676,	-0.972900,	-0.829646,	0.451277,	0.206092,	0.960814,	-0.795526,	0.254006,	0.852473,	-0.450545,	-0.218909,	-0.281289,	0.206519,	0.246437,	-0.599231,	-0.237220,	-0.740715,	-0.150670,	-0.640797,	0.433760,	-0.935423,	0.607715,	-0.325663,	0.378155,	0.582263,	-0.055940,	0.173254,	0.830073,	0.962340,	0.850581,	-0.447554,	-0.318155,	-0.416547,	-0.976074,	0.222388,	0.199072,	0.157811,	-0.198340,	-0.249733,	-0.057344,	0.214576,	0.960387,
	0.713065,	0.460494,	0.274941,	0.441328,	-0.227699,	-0.688711,	0.031159,	-0.936766,	-0.214515,	0.982543,	-0.158055,	-0.713797,	-0.236244,	0.265969,	0.856563,	0.089145,	0.490524,	0.652150,	0.080721,	-0.977722,	0.612415,	-0.692557,	-0.303995,	-0.501083,	-0.984313,	-0.804621,	0.945921,	0.387310,	0.300027,	-0.095248,	-0.099338,	-0.034272,	-0.837703,	-0.252174,	-0.586352,	-0.696097,	0.503769,	0.690054,	0.581713,	-0.867550,	-0.928526,	0.674673,	0.021271,	-0.737480,	-0.551866,	0.904111,	0.274392,	0.619984,	0.201331,	0.641163,	-0.344523,	0.953856,	-0.993835,	-0.908200,	0.852168,	0.284585,	0.552904,	0.933042,	0.592334,	-0.848201,	0.051302,	-0.952818,	-0.309488,	-0.273843,	0.147008,	-0.973510,	-0.214576,	0.846614,	0.058565,	-0.991089,	0.081332,	-0.954283,	0.751030,	-0.590991,	0.405866,	0.627003,	0.956542,	0.105564,	-0.103183,	0.853389,	-0.144932,	-0.350932,	-0.369488,	-0.686331,	-0.771538,	0.050874,	0.503525,	-0.474105,	0.898801,	-0.282998,	0.681509,	-0.158177,	0.264565,	0.089084,	-0.073580,	-0.285073,	-0.252297,	0.554857,	-0.884762,	0.393902,	0.962645,	-0.809687,	0.263039,	0.104465,	-0.579821,	-0.102939,	-0.638600,	0.782342,	0.580310,	-0.504196,	-0.652638,	0.418867,	-0.936522,	-0.659536,	-0.487960,	0.082736,	-0.163671,	-0.986694,	0.664296,	-0.319559,	-0.819147,	0.665090,	0.360515,	-0.483627,	0.262429,	-0.437788,	-0.486862,	-0.282449,	-0.892514,	-0.596362,	0.690786,	0.583056,	-0.195776,	-0.030915,	-0.577929,	-0.077670,	0.737724,	-0.337321,	0.816279,	0.444014,	0.673513,	0.512925,	0.812128,	-0.741813,	0.501022,	0.192480,	0.368999,	0.554552,	-0.550584,	0.620289,	-0.088839,	-0.481857,	-0.410932,	-0.292642,	0.338786,	0.547105,	-0.569872,	-0.189184,	-0.082003,	-0.167760,
	0.431929,	-0.543870,	-0.637989,	-0.636158,	-0.765740,	-0.107395,	0.416486,	0.425581,	-0.575304,	-0.957640,	0.260964,	-0.360271,	-0.347270,	0.407269,	-0.960448,	-0.374126,	-0.095614,	-0.505478,	0.832759,	-0.665090,	0.749931,	-0.674734,	-0.616810,	0.121616,	-0.624134,	-0.413373,	0.888302,	0.617969,	-0.784478,	0.991638,	-0.829279,	0.469649,	0.989074,	-0.591723,	-0.458358,	-0.001495,	-0.033784,	-0.679312,	0.666677,	-0.147008,	-0.734977,	-0.814997,	0.748894,	-0.290078,	-0.003143,	0.241859,	-0.659291,	0.088778,	0.072909,	-0.651235,	-0.903012,	0.342448,	0.482345,	-0.605457,	0.782220,	0.885861,	0.856197,	-0.142003,	-0.156529,	0.725700,	-0.871151,	-0.926145,	-0.136326,	0.352885,	-0.890622,	0.768242,	-0.795282,	-0.938414,	0.775933,	0.425764,	0.155431,	0.755913,	-0.895321,	0.052034,	0.895627,	-0.692679,	0.247536,	0.892209,	-0.410871,	-0.473800,	0.868465,	0.669668,	0.918332,	0.807978,	-0.546190,	0.906674,	0.372173,	-0.481674,	-0.592578,	0.889218,	0.601367,	-0.820795,	0.742851,	-0.160680,	-0.848384,	0.517563,	0.186132,	-0.143162,	-0.111118,	0.440474,	0.501694,	-0.807367,	-0.571703,	-0.001984,	0.852596,	0.417402,	0.879513,	0.397443,	-0.991394,	-0.953734,	0.220863,	-0.869808,	-0.784783,	-0.815729,	-0.384625,	-0.724967,	0.534104,	-0.247353,	0.979919,	0.039155,	-0.530381,	-0.139744,	0.121433,	-0.399762,	-0.307352,	0.882260,	0.751823,	0.311930,	0.674734,	-0.192602,	0.694205,	-0.665273,	0.044465,	-0.581286,	-0.406842,	0.755608,	-0.520310,	-0.132603,	0.441206,	0.257912,	0.946715,	-0.795404,	0.234474,	0.405072,	-0.899899,	-0.567797,	0.069552,	-0.400433,	0.655263,	-0.363750,	-0.005524,	0.780755,	0.545152,	0.764092,	0.925596,	0.922788,	-0.323771,	-0.390790,	0.944090,	-0.603504,
	0.093356,	0.565722,	0.283303,	0.256630,	0.367656,	0.713858,	0.320353,	0.517502,	-0.980224,	0.801202,	0.883969,	-0.520859,	0.790765,	-0.319865,	-0.809137,	-0.832331,	-0.427473,	0.765557,	0.724784,	0.950072,	0.811884,	0.073519,	-0.632496,	0.388165,	-0.801080,	0.405622,	-0.901730,	-0.606555,	0.453719,	-0.760369,	0.570605,	-0.255470,	-0.977599,	0.890133,	0.881222,	-0.969115,	0.497055,	0.500412,	-0.157140,	-0.915159,	0.569140,	0.429975,	-0.926633,	-0.035981,	-0.667714,	0.598437,	-0.786248,	-0.452498,	0.744194,	-0.651296,	-0.412702,	-0.192602,	0.061129,	0.393048,	-0.386700,	-0.181066,	-0.941588,	0.402692,	0.286599,	0.571337,	-0.152196,	0.805292,	-0.963744,	-0.358379,	-0.894894,	0.351360,	0.275552,	0.794732,	-0.478988,	0.013214,	0.956114,	0.571581,	0.286294,	0.777825,	-0.562120,	0.927854,	-0.574694,	-0.102634,	0.989074,	-0.013581,	-0.210669,	0.158849,	0.226051,	-0.034883,	-0.477401,	-0.264077,	-0.191565,	0.343120,	0.813654,	-0.814631,	-0.300027,	-0.672048,	-0.256142,	-0.849849,	0.308329,	-0.314127,	-0.953001,	-0.667287,	-0.183508,	-0.002228,	0.590564,	0.299661,	-0.982116,	-0.596179,	-0.607410,	0.681082,	-0.031892,	0.898434,	-0.013642,	-0.672536,	-0.234657,	-0.761284,	0.944945,	0.985473,	-0.227699,	0.529099,	0.378521,	-0.944151,	-0.407941,	-0.456832,	0.216895,	-0.003571,	0.110324,	-0.152501,	0.089572,	0.931272,	0.916623,	0.788080,	0.616138,	-0.969909,	0.416547,	0.402326,	0.919004,	0.219581,	-0.051241,	0.320414,	0.171606,	-0.211280,	0.217261,	-0.283975,	-0.005646,	0.451827,	-0.646352,	0.371441,	-0.489792,	0.430647,	0.919981,	-0.082125,	-0.126621,	-0.881100,	-0.834162,	-0.685842,	0.083224,	0.891049,	-0.147801,	-0.373516,	0.895321,	0.617664,	-0.046663,	0.171178,
	0.643056,	-0.548265,	0.550890,	-0.916990,	-0.217872,	0.445418,	0.231544,	0.372661,	-0.030427,	0.562181,	-0.698965,	0.533616,	0.490890,	0.645802,	0.127537,	0.763909,	-0.152989,	-0.091098,	-0.074679,	-0.137669,	-0.685598,	0.503769,	-0.706046,	-0.136448,	0.290078,	0.736808,	0.822565,	-0.525987,	0.233619,	0.491195,	-0.926695,	-0.629078,	-0.979186,	-0.581591,	0.257057,	0.427168,	0.518479,	-0.538072,	0.911679,	0.924253,	-0.804804,	0.275307,	-0.102206,	-0.183569,	0.579882,	-0.902646,	-0.977111,	0.108005,	-0.620411,	-0.352641,	0.607288,	-0.594043,	0.071261,	-0.398602,	-0.696951,	-0.288614,	-0.222694,	-0.786126,	0.480758,	-0.488388,	0.239906,	0.646046,	0.493820,	0.235511,	0.705008,	0.563524,	-0.864925,	0.134312,	0.528794,	-0.433393,	-0.402997,	-0.348552,	-0.680288,	-0.985473,	0.248085,	-0.657643,	-0.572131,	0.807123,	-0.461531,	0.408185,	0.594958,	0.685537,	0.347209,	0.904782,	-0.424055,	0.615528,	-0.917722,	-0.309793,	0.547410,	0.815058,	-0.151097,	-0.826533,	-0.888119,	0.988952,	0.994690,	0.925474,	-0.286294,	-0.667287,	0.347758,	-0.783258,	-0.723502,	0.869259,	0.458052,	0.543138,	0.876766,	-0.321085,	0.155187,	0.201758,	0.263955,	0.588000,	-0.264809,	-0.018708,	-0.957884,	0.875423,	0.088839,	0.027070,	-0.676809,	-0.437849,	-0.916623,	0.945067,	-0.334696,	0.845454,	-0.488571,	-0.793939,	-0.890133,	-0.760857,	-0.081881,	-0.085971,	-0.872555,	0.984436,	0.620045,	-0.000763,	0.287576,	-0.707877,	0.227638,	-0.099582,	-0.537584,	-0.020234,	0.984863,	0.797357,	0.379498,	-0.934568,	0.236610,	-0.543321,	-0.666799,	0.881588,	0.338603,	-0.246010,	0.870113,	0.270058,	0.320414,	0.933348,	-0.741508,	-0.577258,	-0.384686,	-0.331523,	0.556505,	0.928404,	-0.831050,	-0.013215,
	-0.910642,	-0.410627,	0.239540,	0.118931,	-0.849788,	0.570238,	0.201270,	0.337260,	-0.264443,	0.441023,	-0.334696,	0.844539,	-0.871456,	0.677602,	0.228797,	-0.223670,	-0.857662,	0.181127,	-0.834651,	0.378887,	-0.163732,	0.380230,	0.370037,	-0.574816,	0.516953,	-0.522935,	-0.129978,	-0.067599,	-0.162877,	-0.599109,	-0.785455,	0.241920,	0.804987,	0.030854,	-0.943663,	0.525559,	-0.484603,	0.250893,	0.236732,	0.779778,	-0.582690,	0.399152,	0.687246,	-0.628834,	-0.072359,	-0.325236,	-0.539842,	0.194617,	-0.793634,	-0.936460,	0.200415,	-0.492294,	-0.096164,	-0.653737,	-0.628529,	0.503098,	-0.307108,	0.751213,	-0.452498,	0.681875,	-0.600574,	-0.186499,	-0.915464,	0.090060,	0.542344,	0.004791,	0.483139,	-0.518784,	-0.903439,	-0.306070,	0.754570,	0.466781,	-0.708670,	0.003021,	0.103916,	0.717521,	0.255776,	0.120029,	0.241859,	0.278420,	-0.675344,	0.630970,	0.637684,	0.058992,	0.817499,	0.434431,	0.026338,	0.562059,	0.101535,	-0.199805,	-0.517747,	-0.086642,	-0.246315,	-0.864681,	0.371319,	-0.745659,	-0.368023,	0.019318,	-0.505112,	0.560778,	-0.330546,	0.071749,	0.737541,	0.949583,	-0.796136,	0.214087,	-0.469039,	0.536485,	-0.345622,	-0.111179,	-0.552660,	-0.092868,	0.359050,	0.797906,	-0.766655,	0.263588,	0.384320,	0.723197,	-0.401166,	0.309610,	0.120151,	-0.008148,	0.071261,	0.936094,	-0.527268,	0.148167,	-0.770440,	-0.229591,	0.467086,	-0.604663,	0.629322,	0.651418,	-0.927427,	0.369244,	-0.268838,	0.091891,	0.063570,	0.806329,	0.146764,	-0.206641,	-0.272439,	0.669240,	0.512802,	-0.727409,	0.233741,	0.291360,	0.306497,	-0.334941,	0.473922,	-0.896359,	-0.084445,	0.765740,	-0.811335,	-0.493820,	-0.726066,	0.371563,	-0.808344,	-0.553819,	0.376751,	-0.013520,
	0.503098,	0.266152,	-0.013581,	-0.047334,	-0.793329,	-0.616321,	-0.156713,	0.069979,	-0.158361,	0.366070,	0.691946,	0.765984,	0.141819,	-0.038362,	-0.563463,	0.879330,	-0.064364,	0.650929,	-0.261696,	-0.880734,	-0.981628,	0.279580,	-0.634266,	-0.736992,	-0.190283,	-0.663991,	0.612354,	0.153905,	-0.391583,	-0.563768,	-0.907590,	0.563097,	0.258156,	-0.422529,	-0.771172,	-0.023041,	0.035310,	-0.275002,	-0.255593,	-0.627308,	-0.428266,	0.292276,	-0.530320,	-0.955382,	0.626087,	-0.920957,	0.779778,	-0.455916,	-0.486007,	0.228614,	0.972655,	0.794793,	0.012543,	0.766961,	0.901059,	-0.553575,	-0.452010,	-0.713492,	-0.829096,	-0.470382,	-0.516953,	0.337504,	-0.780938,	0.473434,	-0.687185,	-0.912290,	-0.418256,	-0.451094,	-0.415815,	-0.184484,	0.667409,	0.801263,	-0.649892,	0.796442,	0.345744,	-0.467757,	0.971862,	-0.852962,	-0.334025,	0.396405,	0.080721,	0.189062,	-0.984130,	0.172460,	-0.486740,	0.894406,	0.035554,	-0.726493,	-0.968871,	-0.024751,	-0.403424,	-0.942076,	-0.361492,	0.181677,	-0.838679,	-0.996887,	0.310160,	-0.632374,	-0.167394,	0.805719,	-0.058260,	-0.109836,	0.407636,	-0.530625,	0.335490,	0.902341,	0.748405,	0.444136,	-0.966857,	-0.896481,	-0.218787,	0.878109,	-0.189917,	0.509323,	0.436934,	0.045808,	-0.359600,	0.803034,	0.845943,	-0.985717,	-0.051057,	0.832575,	0.098849,	0.610340,	0.959960,	0.813105,	-0.113376,	-0.249672,	0.955748,	-0.199499,	0.331645,	-0.802972,	-0.741142,	-0.003693,	-0.676992,	0.803461,	0.748955,	0.446577,	-0.331706,	-0.691946,	0.726615,	-0.301004,	-0.626087,	0.743583,	-0.061129,	-0.021210,	-0.632984,	0.520737,	0.575976,	0.446516,	-0.028596,	-0.748711,	-0.946043,	0.100925,	0.449751,	-0.629139,	0.395062,	-0.111606,	0.924680,	0.625782,
	0.017548,	0.582202,	0.991333,	-0.514817,	-0.251015,	-0.006317,	0.334025,	0.542100,	-0.125828,	0.077914,	-0.341289,	0.964415,	0.031037,	-0.503525,	-0.744743,	0.059664,	0.766411,	0.199683,	-0.499924,	-0.984252,	0.564562,	-0.409040,	0.613636,	0.879513,	0.161107,	0.835627,	-0.016327,	-0.163793,	0.954222,	0.876888,	0.367656,	-0.147557,	-0.673757,	0.720939,	-0.713187,	-0.255165,	-0.312113,	-0.445235,	0.923521,	0.736747,	0.057527,	-0.742119,	0.835383,	-0.434065,	0.988098,	0.871456,	0.798761,	-0.794183,	-0.345500,	-0.413556,	0.092441,	0.261818,	-0.086642,	-0.185095,	0.536729,	-0.893551,	0.147740,	0.904355,	-0.402448,	-0.184668,	-0.289895,	-0.939817,	0.870540,	-0.033906,	-0.225135,	0.037507,	0.255715,	-0.636891,	-0.585986,	0.164403,	-0.863155,	-0.249000,	0.707511,	0.260414,	0.876522,	0.578112,	-0.298318,	0.011811,	-0.059664,	0.874020,	-0.972472,	-0.633839,	-0.037019,	0.302347,	0.992065,	0.509567,	0.067415,	-0.547838,	0.953917,	0.987304,	-0.249000,	0.429975,	-0.202002,	-0.467269,	-0.349528,	-0.185156,	-0.681020,	-0.834712,	0.498154,	-0.960143,	-0.671804,	-0.880123,	-0.417951,	0.261269,	0.295450,	0.171850,	-0.977294,	0.778680,	0.338359,	0.918149,	-0.821406,	0.068514,	0.372295,	-0.421552,	-0.507065,	0.493332,	0.232643,	0.878475,	0.094760,	-0.250832,	-0.418012,	0.577013,	0.465926,	0.114048,	0.415693,	-0.798822,	0.487350,	0.559313,	0.976745,	-0.449934,	0.176672,	0.787225,	-0.106113,	-0.468795,	-0.570544,	-0.743767,	0.354961,	0.891232,	0.077364,	0.257973,	-0.872982,	-0.596606,	-0.425398,	0.106235,	0.238075,	-0.924741,	0.626270,	-0.496872,	0.129795,	-0.062288,	0.070467,	0.142491,	0.096957,	-0.021210,	-0.673330,	0.614246,	0.823359,	0.784722,	-0.276650,	-0.327311,
	0.828547,	-0.549913,	-0.983642,	-0.070162,	-0.363079,	0.320658,	0.412030,	0.037263,	-0.517808,	-0.870174,	0.406110,	0.418805,	0.359355,	-0.906919,	0.751884,	0.616688,	0.236671,	-0.478744,	0.869259,	-0.687124,	-0.759270,	0.516037,	0.008698,	-0.910459,	-0.373760,	0.310282,	-0.519578,	0.989624,	0.343791,	0.815119,	0.263344,	0.940611,	0.017548,	-0.063753,	0.304910,	-0.895016,	-0.854366,	0.223121,	0.825190,	0.217994,	-0.664052,	0.411786,	-0.062777,	-0.023469,	0.389264,	-0.574755,	0.896420,	-0.458419,	-0.957579,	-0.606677,	-0.709220,	-0.784112,	0.184973,	-0.745598,	0.486190,	-0.639454,	0.359783,	-0.498337,	-0.363445,	-0.388287,	0.362285,	-0.363445,	-0.425459,	0.461165,	0.749321,	0.891781,	0.892331,	0.262368,	-0.929075,	-0.214148,	-0.473312,	-0.275246,	0.637440,	-0.926756,	0.161351,	0.959044,	-0.366802,	-0.349773,	0.756768,	-0.864559,	0.392254,	-0.018830,	0.522202,	-0.181799,	-0.355266,	0.606555,	0.641957,	0.037874,	-0.449995,	0.295633,	0.067049,	0.164647,	0.326518,	-0.594165,	-0.313211,	0.645070,	0.291910,	-0.987610,	-0.808832,	0.664235,	0.126316,	-0.631153,	-0.062838,	0.796442,	-0.829829,	0.263405,	0.131809,	0.706595,	0.570299,	0.831233,	-0.356059,	-0.034822,	-0.914731,	-0.613208,	0.757378,	-0.961791,	0.364605,	0.838557,	0.177770,	0.516587,	-0.488083,	0.247291,	0.606372,	-0.355022,	-0.253273,	0.092257,	-0.807611,	0.215430,	0.975890,	-0.193457,	-0.823359,	0.885189,	-0.912595,	-0.855525,	0.039338,	-0.015961,	-0.219459,	-0.056429,	0.464217,	-0.127964,	-0.258095,	-0.156529,	-0.568468,	0.910092,	0.983459,	0.524705,	-0.247414,	0.106906,	-0.848384,	0.028962,	-0.642323,	0.504196,	-0.377117,	-0.275674,	0.651479,	0.361858,	0.195776,	-0.522568,	-0.753960,	0.207862,
	0.194311,	-0.405011,	0.386334,	0.812494,	0.792901,	-0.902524,	0.378765,	0.151585,	0.377117,	0.887631,	-0.663137,	0.420759,	-0.247841,	-0.624866,	0.555650,	-0.837886,	-0.988952,	-0.878048,	0.826716,	-0.432234,	0.875607,	0.068941,	-0.991516,	0.020661,	0.322855,	-0.092990,	-0.838130,	-0.063204,	-0.691153,	-0.844295,	-0.434919,	-0.029389,	0.402753,	-0.488998,	-0.079745,	-0.354167,	0.143345,	-0.974670,	0.063204,	0.475265,	-0.068880,	0.682058,	0.490524,	-0.369549,	-0.732475,	-0.073336,	0.014618,	0.225684,	-0.845149,	-0.281838,	0.861141,	-0.723319,	0.468551,	0.662160,	0.519272,	-0.601367,	-0.885739,	0.787957,	0.659536,	-0.696097,	0.783746,	0.533738,	0.429365,	-0.835810,	-0.880734,	-0.499619,	0.441084,	-0.102512,	0.102390,	0.537950,	0.763237,	0.443770,	0.476241,	-0.274270,	-0.771722,	0.091586,	-0.983032,	-0.189001,	-0.630360,	-0.082369,	0.464339,	-0.334635,	0.299661,	0.402203,	0.925108,	-0.675405,	-0.158300,	-0.716971,	0.562181,	-0.827693,	-0.771172,	0.709830,	0.380657,	0.830805,	0.681020,	-0.238136,	0.924558,	0.321512,	0.173925,	-0.607959,	-0.304239,	-0.942564,	0.711661,	-0.141575,	-0.891354,	-0.769829,	0.415998,	-0.293069,	-0.207923,	-0.846309,	0.744194,	0.367412,	-0.948912,	-0.871944,	-0.851375,	-0.574816,	-0.697623,	-0.615040,	-0.510056,	0.631459,	0.293863,	0.677786,	0.516953,	-0.286538,	-0.077609,	-0.921384,	-0.275063,	0.049226,	-0.538560,	-0.454939,	0.906308,	-0.733146,	0.011872,	-0.181066,	0.703909,	0.833064,	-0.012848,	-0.780755,	0.481735,	-0.308145,	0.446760,	-0.107273,	0.824335,	0.016877,	0.089572,	-0.916684,	0.976989,	0.139195,	0.720084,	-0.015595,	0.540696,	0.713858,	0.999390,	-0.265481,	-0.266884,	-0.813471,	-0.705863,	0.121433,	-0.471602,	0.624378,
	-0.564318,	-0.445540,	-0.011689,	-0.028474,	0.201636,	-0.130345,	0.097873,	-0.206153,	0.332804,	0.529405,	-0.583667,	0.574145,	-0.102512,	-0.221473,	0.858516,	-0.379620,	-0.183447,	-0.679250,	0.915952,	-0.349895,	0.360271,	0.076449,	0.633045,	-0.887265,	0.431135,	-0.414716,	-0.350505,	-0.686880,	0.443709,	0.616016,	0.621143,	0.398053,	0.615284,	-0.454634,	0.332682,	-0.731742,	-0.521592,	0.069552,	0.814020,	-0.520371,	0.429365,	0.809503,	0.773064,	0.194189,	-0.876583,	0.374187,	0.657887,	0.244911,	-0.468612,	0.442305,	-0.340617,	0.376385,	-0.532395,	0.427229,	-0.031343,	-0.276833,	-0.596057,	0.285134,	0.600452,	-0.410199,	-0.618702,	-0.968505,	0.095492,	0.593310,	-0.169225,	-0.473800,	0.414411,	0.231788,	-0.881954,	-0.909116,	-0.664846,	0.941649,	-0.377056,	0.521042,	-0.332438,	-0.295267,	-0.834040,	-0.945006,	0.595935,	-0.730155,	-0.404157,	-0.137364,	-0.536302,	0.048982,	-0.650807,	-0.384686,	-0.688284,	0.752678,	-0.204505,	0.701834,	0.483016,	0.825678,	0.179785,	-0.350200,	-0.393780,	0.745842,	0.975280,	0.317728,	0.271035,	-0.750664,	0.459029,	-0.581408,	0.706839,	-0.456404,	0.322367,	0.937925,	0.778069,	-0.428816,	-0.870907,	-0.990783,	-0.391339,	0.387005,	-0.565783,	-0.191321,	0.147740,	-0.288614,	-0.625355,	0.031953,	-0.011078,	0.721305,	0.545579,	0.515549,	0.756584,	-0.857845,	0.974303,	0.565050,	-0.629383,	0.703787,	-0.995727,	-0.446760,	-0.497238,	0.020600,	0.902158,	-0.650014,	0.536851,	0.961913,	-0.001312,	0.146580,	0.345256,	-0.428632,	0.179418,	-0.762871,	-0.805353,	-0.399152,	-0.466536,	-0.679922,	-0.907224,	-0.280435,	0.976196,	-0.119358,	-0.110630,	0.461470,	-0.343364,	0.218848,	0.443220,	-0.026460,	-0.037385,	-0.316080,	0.168493,	0.627796,
	-0.063997,	-0.321451,	-0.727836,	-0.442183,	-0.089328,	0.995056,	0.995666,	-0.814814,	-0.814325,	-0.954100,	0.172399,	0.795648,	-0.454146,	0.551866,	-0.585070,	-0.771722,	-0.557299,	0.248878,	-0.757256,	-0.258095,	-0.351665,	-0.822443,	-0.535264,	-0.881832,	0.193640,	-0.882992,	0.127354,	0.066317,	-0.595019,	0.725761,	-0.657949,	0.990967,	0.850887,	-0.048067,	0.304300,	0.185644,	-0.989319,	0.275979,	0.816157,	0.514878,	-0.520493,	-0.652638,	-0.374737,	-0.353313,	0.519944,	-0.421247,	0.893063,	-0.101352,	-0.226051,	-0.740471,	-0.895993,	0.759514,	0.948302,	-0.248756,	-0.270730,	0.149144,	0.284036,	-0.672292,	-0.044038,	-0.520432,	-0.375774,	-0.777764,	0.796197,	0.578967,	-0.108005,	0.444258,	0.886837,	-0.458785,	-0.209510,	0.927732,	-0.706229,	-0.435469,	-0.461043,	-0.425153,	-0.368023,	-0.160009,	0.455611,	0.755974,	0.814997,	0.553880,	0.201392,	-0.170751,	0.745354,	-0.934385,	0.495651,	-0.757134,	0.259499,	-0.675832,	-0.882321,	-0.218848,	-0.361492,	-0.415082,	-0.994446,	0.517686,	0.998108,	0.489975,	0.264931,	0.038728,	0.869808,	0.574450,	-0.099033,	0.497665,	0.286416,	-0.739372,	-0.914975,	-0.935179,	0.683340,	0.403363,	0.769524,	0.333781,	0.929319,	0.448347,	-0.538194,	0.247475,	-0.201880,	0.266396,	-0.027497,	-0.893918,	-0.805414,	0.725944,	0.947203,	0.219947,	0.447005,	-0.933653,	-0.003266,	-0.231239,	0.977599,	0.134617,	0.237770,	0.431196,	-0.334208,	-0.452681,	-0.944578,	0.345622,	0.214454,	0.841853,	0.901608,	-0.033784,	0.832575,	-0.322916,	0.940489,	0.375408,	-0.452986,	-0.851070,	-0.645375,	-0.383770,	-0.543870,	-0.719840,	-0.876461,	0.606922,	-0.763665,	0.749382,	-0.912717,	-0.800775,	-0.784173,	-0.079379,	-0.892087,	-0.055269,	0.326945,	-0.763970,
	-0.859004,	0.129917,	0.249977,	0.034761,	-0.970214,	-0.356059,	0.060884,	-0.140599,	0.834773,	-0.759636,	-0.304666,	-0.685965,	0.510178,	0.756157,	-0.458235,	0.535142,	0.741691,	-0.149815,	0.475875,	0.337993,	-0.244057,	0.824030,	-0.351177,	0.102023,	-0.084384,	0.086764,	0.342082,	-0.543382,	0.912046,	-0.172704,	-0.799005,	-0.170080,	-0.632191,	0.455794,	-0.840083,	0.923826,	-0.337443,	-0.622425,	-0.628956,	0.177099,	-0.206824,	0.661367,	0.449873,	0.279519,	-0.917539,	-0.835932,	0.349467,	0.798700,	-0.452864,	-0.323710,	-0.823969,	0.983215,	-0.260781,	0.648549,	0.258644,	-0.196081,	0.872066,	-0.937315,	-0.214881,	0.296060,	0.044221,	0.010712,	0.316996,	0.264321,	0.373699,	-0.457991,	0.495712,	0.414228,	0.854488,	0.343852,	0.252846,	-0.028718,	-0.251869,	0.815424,	-0.163060,	0.851436,	0.323954,	-0.900327,	-0.031343,	0.444075,	0.757988,	0.634144,	-0.561998,	0.071810,	-0.994446,	0.783990,	-0.544969,	-0.812494,	0.458968,	-0.880306,	-0.933042,	0.372967,	-0.797784,	0.901791,	0.954772,	-0.800104,	0.676748,	0.334513,	-0.080111,	0.018159,	0.568896,	-0.847468,	-0.623280,	-0.269387,	-0.266701,	-0.898373,	0.159764,	0.619984,	-0.036409,	-0.124058,	0.960509,	0.288247,	0.423383,	-0.924253,	0.705741,	-0.227699,	-0.450423,	-0.253456,	0.189673,	-0.102023,	0.241371,	0.062960,	-0.727836,	0.933897,	-0.853633,	0.719657,	0.956481,	-0.390118,	-0.142491,	0.591418,	0.657643,	0.560472,	0.831782,	0.226173,	-0.024384,	0.256447,	-0.155187,	-0.268654,	-0.715995,	0.488083,	-0.207068,	0.618397,	0.448347,	-0.539598,	-0.344768,	0.165685,	-0.014557,	-0.434370,	-0.571581,	-0.135166,	-0.023408,	-0.107334,	0.846675,	0.510178,	-0.952452,	0.537950,	0.699454,	-0.503952,	0.727042,	0.779901,
	0.559069,	0.883663,	-0.503464,	0.178198,	-0.268593,	-0.200537,	-0.155126,	0.662526,	-0.758660,	-0.271462,	0.637928,	0.671072,	-0.334086,	0.264931,	0.118381,	-0.597339,	0.627857,	-0.118931,	-0.153966,	0.245277,	0.761711,	-0.720023,	0.892636,	-0.558336,	-0.035188,	-0.108554,	0.602771,	-0.943236,	0.746513,	-0.924680,	-0.766411,	0.307962,	0.486984,	0.594531,	0.786676,	0.321146,	-0.581164,	-0.080172,	-0.657643,	0.375103,	0.144200,	0.929624,	-0.787774,	0.696707,	-0.500900,	-0.433943,	0.219092,	-0.130650,	0.578051,	-0.988708,	0.418867,	-0.082858,	-0.268471,	-0.054415,	-0.423200,	-0.872555,	0.348247,	0.449507,	-0.290445,	-0.325602,	0.235511,	-0.885861,	0.006134,	0.104892,	0.409284,	-0.080294,	0.440657,	-0.248512,	0.107273,	0.447127,	-0.611377,	-0.867061,	-0.162999,	-0.016510,	-0.439802,	-0.594592,	-0.728568,	-0.915220,	-0.438582,	0.927305,	-0.194861,	-0.841426,	-0.602283,	-0.000336,	0.582568,	-0.372295,	-0.769158,	-0.154820,	-0.188086,	-0.760491,	-0.297403,	0.887387,	0.176611,	-0.918271,	-0.863216,	0.393719,	0.156590,	-0.132359,	-0.066500,	0.543992,	0.072665,	-0.946287,	-0.533494,	0.987365,	0.665944,	0.351604,	-0.202429,	0.950011,	-0.975524,	-0.803339,	-0.480941,	0.955931,	-0.329081,	0.737419,	0.039033,	-0.776177,	-0.378094,	-0.095004,	-0.381085,	0.802240,	-0.766716,	0.129185,	-0.521287,	0.504868,	-0.357402,	0.259865,	-0.719596,	-0.289895,	0.621937,	0.259133,	0.302957,	0.085788,	-0.346599,	-0.775506,	-0.378521,	0.302103,	0.039705,	0.307840,	-0.397565,	0.795770,	0.862239,	0.089694,	0.027985,	0.647145,	0.599780,	0.974853,	-0.838435,	-0.366863,	-0.780755,	0.168615,	-0.932371,	-0.481368,	0.552293,	-0.201392,	-0.502487,	-0.351665,	-0.231300,	-0.257241,	-0.345805,	0.902280,
	-0.239112,	-0.272683,	0.149022,	-0.923460,	-0.749626,	0.256874,	0.461348,	-0.246620,	0.429487,	0.938658,	0.215613,	-0.279458,	0.951170,	-0.235817,	-0.413312,	-0.994690,	0.078402,	-0.089694,	-0.853267,	0.583544,	-0.193335,	-0.377911,	0.466292,	-0.173009,	0.771294,	-0.259438,	-0.219092,	0.752068,	-0.247292,	0.437178,	0.038057,	-0.869259,	0.591601,	-0.281838,	-0.365764,	-0.471419,	-0.673086,	-0.739433,	-0.843501,	0.329997,	-0.631031,	0.142979,	0.440291,	-0.185339,	-0.479720,	0.033296,	-0.743767,	-0.652638,	0.656240,	0.396039,	-0.061556,	0.743461,	-0.121189,	-0.718375,	-0.733696,	-0.127720,	-0.044649,	0.260170,	-0.086642,	-0.437605,	0.854854,	-0.937681,	0.774224,	-0.131260,	-0.805536,	0.489914,	0.483871,	0.766594,	0.408918,	-0.841975,	-0.560045,	-0.666738,	-0.545579,	0.632252,	0.642262,	0.481063,	0.861141,	0.522446,	0.660207,	-0.697256,	-0.055025,	0.096530,	-0.957152,	0.093783,	-0.007233,	-0.024262,	-0.517991,	0.112033,	-0.768242,	0.475082,	-0.958251,	-0.861446,	0.397870,	0.149998,	0.767449,	0.901914,	0.712760,	-0.886654,	-0.014618,	-0.572314,	-0.915281,	0.684133,	-0.392865,	0.376995,	0.344462,	-0.069674,	0.749626,	0.434919,	-0.672353,	0.669668,	-0.015473,	0.813288,	0.619068,	-0.511277,	-0.471053,	-0.071932,	0.768242,	0.345622,	-0.309977,	-0.683828,	0.790704,	0.315531,	-0.124241,	-0.147923,	-0.233009,	0.044343,	-0.514939,	0.328349,	-0.648183,	-0.528184,	0.988952,	-0.538316,	0.005341,	0.386212,	0.515854,	-0.612720,	0.760247,	0.373760,	0.253151,	-0.295877,	-0.663625,	-0.274697,	-0.022187,	0.133335,	0.415265,	-0.137669,	0.028108,	0.852290,	0.887265,	0.844905,	-0.970458,	0.567370,	-0.115635,	0.524094,	0.687246,	-0.612903,	0.410077,	0.902158,	0.956847,	0.558763,
	0.379925,	0.261086,	-0.092929,	0.130711,	-0.116001,	0.624134,	-0.413495,	0.603076,	0.485580,	-0.888668,	0.206153,	-0.370952,	-0.633656,	0.752556,	-0.048921,	-0.170141,	0.132847,	-0.680654,	0.734123,	0.784845,	-0.905515,	-0.260414,	-0.797845,	-0.739494,	0.827815,	0.656117,	-0.689383,	0.740165,	-0.162694,	0.692679,	-0.225013,	0.316263,	0.127476,	0.989441,	0.714957,	0.009491,	-0.503342,	-0.429792,	0.802179,	0.575549,	0.366497,	0.104587,	-0.775750,	0.862545,	-0.040986,	0.626820,	-0.222083,	0.782220,	-0.366375,	0.774285,	-0.596789,	0.956725,	0.197119,	-0.891720,	0.472152,	-0.896786,	0.998474,	-0.920957,	-0.856990,	0.220313,	-0.378582,	-0.802423,	-0.905637,	0.636525,	-0.012360,	-0.022309,	0.950133,	0.985290,	-0.318339,	-0.790582,	0.708121,	0.168493,	0.311869,	0.127415,	-0.514328,	-0.630238,	-0.281594,	0.036042,	-0.105747,	0.182348,	-0.157933,	-0.045808,	-0.645558,	-0.088717,	-0.935240,	0.842341,	-0.333964,	0.115513,	0.836299,	0.973327,	-0.856258,	-0.550829,	-0.602283,	0.011200,	0.632374,	0.867611,	0.415937,	0.359172,	-0.287271,	0.257729,	-0.660085,	-0.660939,	0.412214,	0.558153,	-0.707327,	0.766228,	0.731254,	0.428816,	-0.688955,	-0.519272,	-0.701346,	-0.465438,	0.744804,	-0.601306,	-0.530931,	-0.495346,	0.629505,	0.645070,	0.173009,	0.629810,	-0.156346,	0.331401,	-0.165136,	-0.639149,	0.863948,	0.540269,	0.668569,	0.670217,	0.930479,	0.079684,	-0.334696,	0.339091,	-0.565233,	-0.431013,	-0.415021,	-0.766655,	-0.657155,	0.419904,	0.264077,	0.629810,	-0.534104,	-0.726127,	-0.447737,	0.655873,	-0.608753,	0.459761,	0.190893,	0.905210,	-0.114048,	0.032746,	-0.055208,	-0.708853,	0.585620,	-0.041475,	-0.699210,	0.201880,	-0.219703,	0.003937,	0.045381,	0.017487,
	0.111789,	-0.102573,	-0.967040,	-0.946043,	0.992187,	-0.678396,	0.459334,	-0.004669,	-0.441572,	0.299966,	0.949950,	-0.124363,	0.974486,	-0.458968,	0.778497,	-0.324442,	-0.106784,	-0.698050,	-0.473678,	0.593860,	-0.108676,	0.334025,	-0.504501,	-0.942808,	0.689505,	-0.527573,	-0.811396,	-0.468612,	-0.030427,	-0.566027,	0.167516,	-0.804926,	-0.397076,	-0.616688,	-0.396588,	-0.460250,	-0.899594,	-0.168310,	-0.169469,	0.957884,	0.098117,	0.430219,	-0.783074,	-0.618335,	0.690786,	0.220130,	-0.336589,	-0.964415,	-0.575060,	0.902402,	-0.955809,	0.364055,	-0.234840,	0.689871,	-0.098178,	-0.802240,	0.845332,	-0.696768,	0.707694,	0.220924,	-0.682974,	-0.325297,	-0.997681,	0.801141,	0.109531,	0.920713,	0.726615,	0.246010,	0.910459,	0.146764,	-0.943358,	0.547227,	0.183142,	-0.352763,	-0.944029,	-0.324320,	-0.468673,	-0.938414,	-0.544420,	-0.509690,	0.223365,	-0.949461,	-0.124119,	-0.678152,	0.689688,	0.053987,	0.802912,	-0.704459,	0.805475,	0.693655,	0.630055,	0.454573,	-0.229530,	-0.617237,	-0.920408,	-0.253700,	-0.600452,	-0.294839,	-0.684805,	0.934996,	-0.364483,	-0.873531,	0.058077,	-0.497909,	0.097201,	-0.400189,	0.020234,	0.598132,	0.475143,	-0.371502,	-0.034028,	0.106662,	-0.412275,	0.348552,	0.715201,	-0.114353,	-0.090548,	-0.807550,	0.400372,	-0.754509,	-0.615101,	-0.301187,	-0.709952,	-0.271096,	-0.659963,	-0.972594,	-0.508469,	-0.746330,	0.303690,	-0.254799,	-0.155736,	0.681387,	0.551744,	-0.556627,	-0.682363,	0.873959,	-0.813593,	0.749504,	-0.774590,	-0.698355,	0.563707,	-0.703665,	-0.431806,	0.264077,	-0.120151,	0.210852,	-0.181555,	-0.213599,	0.731620,	0.684011,	-0.541612,	-0.744926,	0.461104,	-0.813593,	0.584887,	0.853023,	0.098605,	0.890500,	-0.106967,	0.859004,
	0.714896,	-0.138401,	0.351482,	-0.127659,	0.997253,	-0.417768,	-0.119175,	0.026338,	-0.140416,	0.370098,	-0.650319,	0.251747,	0.901059,	-0.746879,	-0.801752,	-0.345744,	0.524033,	0.864559,	-0.995483,	0.067598,	0.525742,	0.919553,	-0.696341,	-0.155614,	0.974059,	0.836665,	-0.026215,	-0.051485,	0.181310,	-0.933958,	0.501328,	0.410321,	-0.411237,	-0.312479,	0.436811,	0.207739,	0.373089,	-0.159520,	-0.644459,	0.635670,	-0.412152,	0.548082,	0.633839,	-0.773858,	0.653615,	0.499252,	0.354717,	0.281838,	0.007172,	-0.650807,	-0.345134,	-0.914853,	0.724052,	0.102817,	-0.174657,	-0.154088,	0.926023,	-0.857845,	0.478927,	0.449446,	-0.214026,	-0.539048,	0.096164,	0.068331,	0.943480,	-0.331095,	-0.737053,	0.699637,	0.142552,	0.327860,	-0.087863,	0.690664,	0.904843,	0.182409,	0.881039,	-0.684805,	-0.949644,	-0.152257,	-0.901486,	0.463607,	-0.121555,	-0.483139,	0.713187,	0.507614,	0.821162,	0.249977,	-0.524949,	0.404706,	-0.617969,	-0.591845,	0.684683,	-0.897641,	-0.827204,	-0.205603,	0.019868,	0.306131,	-0.140599,	-0.936033,	-0.444990,	-0.327250,	-0.168493,	0.966857,	0.283548,	0.492538,	-0.593188,	0.984497,	-0.542955,	0.921873,	-0.617054,	-0.075900,	0.053316,	0.828913,	0.749870,	0.032075,	0.685843,	-0.684255,	0.374126,	-0.810480,	-0.732963,	0.978210,	0.469649,	-0.247719,	0.738029,	-0.033540,	0.664663,	-0.401837,	0.177221,	-0.090609,	0.479782,	-0.056368,	-0.399457,	0.764397,	-0.971618,	-0.507736,	-0.234840,	0.655202,	-0.247536,	-0.521775,	-0.709952,	-0.238746,	-0.994690,	-0.833674,	0.405072,	0.319681,	0.295572,	0.371929,	-0.358257,	-0.196814,	-0.997375,	0.562670,	0.777886,	-0.663503,	-0.621387,	-0.895321,	0.348430,	0.413251,	0.646657,	0.216468,	-0.964538,	-0.023713,
	0.010041,	-0.808954,	-0.750359,	0.924131,	-0.615894,	-0.548570,	0.215003,	0.104770,	-0.337016,	-1.000000,	0.870846,	0.861385,	-0.666066,	-0.175146,	-0.097690,	0.190344,	-0.747612,	0.825922,	-0.787835,	-0.424177,	0.388897,	-0.177099,	0.146703,	-0.437910,	0.361553,	-0.791864,	0.787896,	-0.873287,	-0.433393,	0.806085,	-0.375530,	-0.082553,	0.718375,	0.502121,	-0.085055,	0.414289,	0.611988,	0.204321,	0.053316,	0.080111,	-0.077975,	-0.301126,	0.252602,	0.562487,	-0.152135,	-0.037263,	0.856197,	0.007782,	-0.580248,	0.496078,	0.591113,	-0.447859,	0.277383,	0.236488,	0.075289,	0.050020,	0.733329,	0.617786,	0.890866,	0.103671,	-0.065157,	0.336100,	-0.463485,	-0.543992,	-0.064791,	0.385052,	0.571520,	0.809503,	0.487899,	0.923276,	0.263161,	0.132481,	0.375774,	0.536241,	-0.948973,	0.517441,	0.088595,	-0.544542,	0.140049,	-0.348613,	-0.340556,	-0.702994,	0.534715,	-0.036897,	0.475265,	0.881954,	-0.172338,	-0.492233,	0.871334,	0.701285,	-0.945738,	0.653005,	0.324015,	-0.411542,	0.926328,	0.627674,	0.053743,	0.160741,	-0.243080,	0.997009,	0.850215,	0.593005,	0.389813,	0.125645,	-0.066988,	-0.714164,	0.444380,	-0.308512,	-0.340007,	-0.009003,	-0.809992,	-0.687002,	-0.104282,	-0.044221,	-0.638050,	0.352092,	0.852229,	0.650380,	-0.769402,	0.955382,	0.215491,	-0.361248,	-0.762322,	-0.603687,	-0.630604,	-0.842769,	0.511155,	-0.219581,	0.529466,	-0.037568,	-0.428693,	-0.823542,	-0.400189,	0.011017,	0.541307,	0.235816,	0.564867,	0.534349,	-0.826655,	0.362651,	0.228797,	-0.930235,	0.004730,	-0.502915,	-0.884579,	0.011872,	0.954222,	-0.424848,	-0.659658,	0.245460,	0.673269,	-0.274636,	-0.731620,	0.422956,	0.963073,	0.267739,	-0.231239,	-0.550707,	-0.429121,	-0.424970,
	-0.119541,	0.736015,	-0.322672,	0.860225,	0.700125,	-0.212806,	-0.612049,	0.951903,	-0.695059,	-0.319498,	-0.458785,	0.121067,	-0.476180,	0.004852,	-0.854976,	-0.979430,	-0.632130,	-0.182592,	0.755242,	-0.199316,	-0.065706,	0.183264,	-0.892880,	-0.537278,	-0.405194,	0.859004,	-0.685171,	0.513901,	0.282388,	0.683828,	-0.052278,	0.984680,	-0.312662,	0.239601,	-0.700087,	0.872799,	0.176977,	0.343791,	0.162755,	-0.925047,	0.249611,	0.935911,	-0.586352,	-0.130345,	-0.663320,	-0.078280,	-0.265358,	-0.987304,	-0.235084,	0.536912,	-0.228675,	0.509690,	0.691214,	0.792413,	0.046602,	0.125034,	-0.177709,	-0.435408,	0.940001,	0.693777,	-0.267067,	0.892514,	0.046541,	-0.705130,	0.593127,	-0.955870,	-0.773186,	-0.648549,	0.118809,	-0.084262,	0.661000,	-0.281045,	0.557482,	-0.675710,	0.218909,	-0.176305,	-0.478683,	-0.241676,	-0.540574,	0.915586,	0.480819,	0.147374,	0.571520,	0.495529,	-0.269387,	0.213965,	-0.431806,	-0.017731,	-0.359233,	-0.030061,	0.048006,	0.679006,	-0.994263,	-0.080416,	0.834590,	0.103855,	0.303385,	0.533006,	-0.191870,	-0.253945,	0.676443,	0.550401,	-0.759331,	0.310099,	0.449690,	0.682241,	0.947630,	-0.488876,	-0.005707,	0.265175,	0.568102,	0.483444,	0.752434,	-0.561632,	-0.713004,	-0.135716,	-0.765252,	0.401654,	0.311136,	-0.383038,	-0.197302,	0.317667,	0.410810,	-0.346355,	-0.951415,	-0.578112,	-0.158483,	-0.677725,	-0.413862,	0.901791,	0.956359,	0.818659,	0.063204,	0.107639,	0.822260,	0.587085,	-0.790094,	-0.341472,	0.153172,	-0.227821,	0.734550,	0.005219,	-0.128452,	-0.216834,	0.879086,	0.012055,	-0.388287,	0.034333,	-0.551805,	-0.878536,	-0.522996,	-0.075900,	0.122959,	-0.337016,	-0.637074,	0.114353,	0.871700,	0.868709,	-0.840205,	-0.826777,
	0.272073,	-0.841121,	0.146641,	0.643910,	0.555162,	0.259804,	0.888546,	0.601306,	-0.815485,	-0.285257,	-0.048860,	0.759819,	-0.216407,	-0.645985,	0.743339,	-0.805780,	0.222510,	0.282876,	0.802057,	-0.263344,	0.678152,	-0.047822,	0.830073,	0.111301,	-0.521043,	-0.126438,	-0.198706,	-0.129856,	-0.452315,	-0.458480,	-0.555834,	0.192419,	-0.745903,	-0.874813,	0.416584,	0.609180,	0.490463,	0.491745,	-0.515061,	0.716422,	-0.217994,	-0.875301,	0.019807,	-0.060823,	-0.754570,	0.499619,	-0.880490,	-0.591479,	-0.792901,	-0.522080,	-0.323344,	-0.985290,	-0.705863,	0.284768,	0.696890,	-0.301553,	-0.189245,	-0.370464,	0.185461,	0.042573,	0.212073,	0.534837,	-0.088107,	-0.772088,	0.487960,	-0.566149,	0.366253,	-0.585986,	0.270180,	0.100803,	-0.780511,	-0.391278,	-0.526292,	0.974975,	-0.400128,	0.088229,	-0.713370,	-0.557726,	-0.501328,	-0.569567,	-0.680349,	-0.363323,	0.617054,	-0.775506,	-0.271645,	-0.677175,	-0.033357,	0.518174,	0.120762,	0.423688,	0.537339,	-0.934263,	0.062349,	0.755242,	0.342753,	-0.559557,	0.991638,	-0.469222,	0.158300,	-0.929258,	0.357585,	0.196936,	-0.737541,	0.267067,	-0.206763,	-0.835810,	-0.505417,	-0.702811,	0.136204,	-0.004791,	0.941832,	0.576830,	-0.890500,	-0.388653,	-0.433027,	-0.965575,	0.475448,	0.082553,	0.091098,	0.715445,	0.473861,	0.561022,	0.441389,	0.686392,	0.358989,	0.922056,	-0.921018,	0.303079,	0.845637,	-0.325785,	-0.482223,	0.904111,	-0.721488,	-0.297586,	-0.653188,	-0.007355,	-0.663259,	0.404157,	0.069735,	0.969115,	0.085543,	-0.216224,	-0.927610,	0.477157,	0.188452,	-0.933714,	0.032929,	0.425459,	0.092441,	-0.607471,	-0.915769,	0.747734,	-0.002472,	-0.840632,	-0.955504,	-0.036714,	0.424604,	-0.433088,	-0.974548,	-0.398541,
	-0.806940,	0.935057,	-0.267678,	-0.448836,	-0.378521,	-0.647877,	-0.232032,	0.399213,	-0.236976,	0.218482,	-0.746635,	-0.180944,	-0.511338,	0.246010,	0.076571,	-0.926817,	-0.769219,	0.478744,	-0.916440,	0.691031,	-0.800958,	-0.106113,	-0.477157,	-0.614856,	0.881710,	0.148839,	-0.943663,	-0.731742,	-0.355571,	-0.965880,	-0.350566,	-0.566210,	0.239540,	-0.803583,	-0.348023,	0.961791,	0.037324,	-0.306497,	-0.616138,	-0.586962,	-0.206763,	0.943785,	0.536424,	-0.124973,	0.762261,	0.632435,	0.702872,	0.619495,	-0.026582,	-0.861934,	-0.649586,	0.437178,	0.477401,	0.040193,	0.546129,	-0.289834,	0.378826,	0.272134,	0.748833,	0.285379,	-0.533677,	-0.519578,	0.980712,	0.210730,	-0.746940,	-0.845759,	-0.310587,	0.397992,	-0.760674,	-0.913694,	-0.385174,	-0.726981,	-0.788995,	-0.271157,	0.971923,	0.477340,	0.385052,	0.005951,	0.262185,	-0.317179,	-0.784478,	-0.853572,	-0.972839,	-0.417829,	0.672109,	0.097629,	-0.144444,	-0.882199,	0.803888,	-0.915647,	-0.043672,	0.011078,	-0.599475,	0.875118,	-0.388531,	0.655385,	0.564257,	0.316813,	-0.180334,	0.434675,	0.003510,	-0.297037,	0.443892,	0.530259,	0.862667,	0.535203,	-0.824335,	0.278787,	0.898801,	-0.757866,	0.628163,	-0.857418,	0.819025,	-0.581591,	-0.129673,	-0.642811,	0.590320,	0.144749,	-0.284524,	-0.684378,	-0.465804,	0.953368,	0.075961,	0.754570,	-0.980285,	0.999817,	0.696707,	-0.196631,	-0.433882,	-0.995117,	-0.419660,	0.958922,	-0.831904,	-0.471664,	0.416303,	0.048616,	0.656728,	0.136692,	-0.674123,	-0.755364,	0.907346,	-0.971129,	0.236793,	0.190832,	-0.291787,	-0.319071,	-0.801447,	0.305643,	-0.898434,	0.072665,	0.952452,	0.323588,	-0.990234,	-0.940977,	0.067049,	0.137364,	-0.040742,	-0.551256,	-0.046541,	-0.997192,
	0.714286,	0.351848,	0.071566,	-0.829585,	-0.365886,	0.359783,	0.640126,	-0.995666,	-0.435530,	0.119846,	-0.836665,	0.652882,	-0.922849,	-0.133152,	0.086703,	0.331767,	-0.130161,	0.473739,	-0.106601,	0.283364,	-0.861934,	-0.414960,	0.955687,	0.474288,	0.733146,	-0.605701,	0.451643,	-0.906430,	-0.083224,	-0.371197,	-0.338298,	-0.085543,	-0.473251,	0.303446,	-0.044102,	-0.418561,	0.364849,	-0.192908,	0.785699,	0.886227,	-0.380413,	0.883602,	-0.008759,	-0.906247,	0.137425,	0.068819,	-0.261208,	-0.617664,	0.353374,	-0.851375,	0.398602,	0.458907,	-0.305460,	0.197974,	-0.323222,	0.412641,	-0.730888,	0.764336,	-0.685842,	-0.130222,	0.652638,	0.759148,	0.663625,	0.511399,	0.584216,	-0.382122,	-0.541490,	0.016755,	0.386212,	-0.707266,	-0.914182,	-0.504562,	-0.081698,	-0.360820,	0.675283,	0.470138,	0.879574,	-0.239662,	-0.683279,	-0.528001,	-0.729606,	-0.129612,	0.720511,	-0.686819,	-0.172094,	-0.760002,	-0.370037,	-0.903806,	0.245216,	0.786676,	0.301736,	0.025117,	-0.010529,	-0.128574,	0.364055,	-0.920774,	-0.470443,	-0.133824,	0.366924,	-0.386578,	0.786615,	0.051546,	0.336161,	0.945921,	0.619312,	0.410749,	-0.356365,	-0.002777,	0.157506,	0.879513,	-0.493576,	-0.957396,	-0.204505,	-0.384075,	0.427961,	0.639760,	0.658010,	-0.147679,	-0.108127,	-0.204932,	0.351360,	-0.108493,	0.623646,	0.431074,	-0.187353,	-0.189978,	0.730216,	0.216163,	-0.931516,	-0.568590,	0.031281,	0.821284,	0.716849,	-0.869198,	-0.105564,	-0.336222,	0.943724,	0.034577,	0.887143,	0.203040,	0.887875,	-0.823298,	-0.443464,	0.848567,	0.165319,	0.174902,	0.652333,	-0.455611,	-0.633229,	0.988586,	0.101596,	0.091708,	-0.660085,	-0.678457,	-0.948057,	-0.728263,	0.069918,	-0.768426,	0.291971,	0.832881,
	0.969054,	-0.490463,	-0.635914,	-0.597583,	-0.609668,	-0.609546,	-0.318888,	0.387921,	-0.824763,	0.159703,	-0.041108,	0.927793,	0.049532,	0.214942,	-0.721976,	-0.043306,	-0.320841,	0.149266,	0.087435,	0.445723,	-0.801080,	-0.585253,	0.460921,	-0.118931,	0.025971,	-0.867977,	-0.078890,	0.043794,	0.771477,	0.605396,	0.141575,	0.152379,	0.061739,	0.108737,	0.840632,	0.431684,	0.082980,	-0.497116,	0.179113,	0.169469,	0.660146,	-0.752556,	-0.025300,	-0.675649,	0.684133,	-0.630299,	-0.955565,	-0.253456,	0.699026,	0.953612,	0.989685,	-0.925352,	-0.538377,	-0.290384,	-0.266030,	-0.629261,	0.286904,	0.190588,	-0.871883,	-0.443831,	-0.009980,	0.213172,	-0.066195,	-0.289590,	0.239662,	0.049959,	0.498276,	0.296121,	0.133152,	-0.047090,	0.433821,	0.372295,	-0.192969,	0.571825,	-0.387249,	-0.141942,	-0.104465,	-0.170995,	-0.208228,	-0.090182,	0.648976,	0.814936,	-0.822199,	0.474654,	-0.475509,	0.264199,	-0.752678,	-0.919187,	-0.937437,	0.177343,	0.132481,	-0.069369,	-0.139012,	0.149144,	-0.114109,	-0.644887,	0.458418,	0.966369,	-0.062716,	0.695608,	0.941710,	-0.962096,	0.053133,	0.672658,	0.087130,	0.219153,	-0.886227,	0.306681,	0.850398,	0.593371,	-0.981384,	0.451094,	0.016022,	0.772881,	0.033296,	-0.998474,	0.819636,	-0.717948,	0.890255,	-0.156285,	0.355571,	-0.415021,	-0.043977,	0.601123,	0.581957,	0.320048,	0.777764,	-0.752861,	0.736076,	-0.696219,	0.320231,	0.642201,	-0.027985,	0.867794,	-0.792474,	-0.940733,	0.034150,	-0.911557,	0.281045,	-0.239357,	0.777642,	0.475692,	0.786065,	-0.312845,	0.349345,	0.679434,	0.499985,	0.324015,	0.841609,	0.779412,	-0.885739,	0.804437,	-0.769341,	-0.281228,	-0.816645,	0.314249,	0.413312,	0.445112,	-0.048433,	-0.140416,
	0.153111,	0.320658,	0.372173,	0.460677,	0.749992,	-0.635243,	0.629871,	-0.166478,	-0.755791,	0.891171,	0.480270,	0.622791,	0.968749,	0.101474,	-0.282510,	0.247414,	0.260903,	-0.800897,	-0.915952,	-0.577197,	-0.852351,	0.584826,	0.933714,	-0.579455,	-0.184545,	0.696341,	-0.038545,	-0.870907,	-0.322306,	0.056123,	-0.687857,	-0.021882,	0.852718,	0.087558,	0.380718,	-0.211768,	0.864009,	0.263833,	-0.384503,	-0.390973,	0.376141,	0.151097,	0.639576,	0.608325,	0.777764,	-0.091281,	0.999146,	-0.926267,	-0.575121,	-0.190893,	-0.145482,	0.591601,	-0.642689,	0.339396,	-0.074862,	-0.537950,	-0.700247,	-0.552171,	-0.000275,	0.417280,	0.760430,	0.497299,	-0.673147,	0.700919,	0.040315,	-0.512070,	0.195898,	-0.425398,	-0.035066,	-0.887692,	0.022492,	-0.687796,	-0.848994,	0.204810,	-0.750237,	0.745170,	-0.378887,	0.147984,	0.379315,	-0.579394,	0.578173,	0.798883,	0.442732,	-0.563890,	-0.847163,	-0.503281,	0.227699,	-0.988464,	-0.063875,	-0.284036,	0.570177,	0.862911,	0.109226,	0.925413,	-0.974670,	-0.561449,	-0.015900,	0.217566,	-0.769585,	0.081942,	-0.233863,	-0.729911,	0.271096,	0.181738,	0.352580,	-0.798883,	0.364055,	-0.626392,	0.977966,	0.882199,	0.169164,	0.854915,	-0.479965,	-0.729606,	0.042390,	0.874935,	0.278787,	-0.676992,	0.543138,	0.463973,	-0.960631,	0.055879,	0.507248,	0.462447,	0.234413,	0.309549,	-0.000031,	-0.085726,	0.014557,	0.784783,	0.459456,	0.885006,	0.043550,	-0.090487,	-0.655690,	-0.231117,	-0.173009,	0.101535,	-0.401837,	0.146519,	0.389630,	-0.013153,	-0.757805,	-0.744072,	-0.887631,	-0.861629,	-0.590014,	-0.861019,	0.542222,	0.896847,	0.135472,	0.526780,	0.987121,	-0.164769,	0.207923,	0.525071,	-0.291360,	-0.568407,	0.405499,	0.163671,
	0.524827,	0.510239,	0.420393,	0.870968,	0.635487,	0.015473,	0.787530,	-0.062593,	0.482955,	0.679983,	0.130283,	0.029267,	-0.539781,	-0.850154,	-0.965453,	0.815668,	-0.720573,	-0.870235,	0.864376,	-0.228187,	-0.187170,	-0.890805,	0.831538,	0.220130,	-0.780877,	-0.765740,	-0.368328,	-0.327677,	-0.832820,	0.885861,	0.959288,	0.534837,	0.970397,	-0.472640,	-0.786615,	0.239540,	-0.557176,	0.385296,	0.708670,	0.863704,	0.291665,	-0.477218,	0.701224,	-0.700430,	-0.143712,	-0.128147,	-0.455367,	0.038423,	-0.991943,	0.784173,	0.286721,	-0.370769,	0.022797,	0.663930,	-0.979675,	0.876461,	0.237953,	-0.754387,	0.300577,	-0.161657,	-0.692068,	-0.921201,	0.940977,	-0.311563,	-0.130650,	0.782037,	0.501144,	0.502976,	0.428999,	-0.371197,	-0.221900,	-0.963683,	0.286843,	0.028962,	-0.385907,	-0.452132,	-0.693289,	-0.534227,	-0.666494,	-0.258766,	0.347575,	0.453597,	-0.878964,	0.879818,	-0.833369,	0.076937,	-0.346416,	0.140843,	-0.391522,	-0.325480,	-0.701102,	0.269692,	0.891049,	0.229957,	0.192968,	0.597705,	0.802362,	0.032380,	-0.491318,	0.485885,	-0.380169,	0.168493,	-0.771294,	-0.743217,	0.564562,	0.409955,	0.734733,	-0.323038,	-0.396954,	-0.942991,	-0.475204,	-0.946715,	0.409772,	-0.697439,	0.373699,	-0.995605,	-0.698416,	-0.323099,	0.245521,	-0.029267,	-0.041841,	-0.861507,	-0.726249,	-0.474654,	0.739189,	0.370952,	-0.880062,	0.548204,	0.412336,	-0.150731,	-0.976440,	0.325602,	-0.896237,	0.239051,	0.856075,	0.638722,	0.283670,	-0.310465,	-0.508774,	-0.097812,	0.599353,	-0.416303,	-0.195532,	-0.583300,	-0.631092,	-0.691824,	0.613453,	0.796625,	0.547227,	-0.395001,	0.872738,	0.636219,	0.976989,	-0.932127,	0.434675,	-0.522996,	-0.262307,	-0.654103,	0.689383,	-0.861995,
	0.404950,	-0.384014,	-0.604053,	-0.528306,	-0.968383,	-0.111972,	-0.982116,	0.608325,	-0.334758,	-0.295633,	0.874447,	-0.248634,	0.212073,	-0.203711,	0.421003,	0.585803,	0.461959,	-0.740043,	-0.028352,	0.362224,	-0.914365,	-0.185217,	0.174352,	0.719718,	-0.582751,	-0.294656,	0.553453,	-0.691275,	0.834346,	0.811762,	0.430891,	0.277993,	-0.451827,	-0.471602,	0.538499,	0.686514,	-0.383160,	0.975158,	0.634754,	0.904538,	-0.006928,	-0.896847,	-0.562548,	0.064791,	0.420270,	0.257668,	0.185522,	0.627369,	-0.011872,	0.760064,	0.142186,	-0.880184,	-0.838435,	0.072359,	-0.647938,	-0.883663,	-0.905942,	0.105930,	0.964721,	-0.482894,	-0.960631,	0.237648,	0.436750,	0.191076,	-0.327311,	0.594775,	-0.073885,	0.044649,	-0.864803,	-0.827204,	-0.810602,	-0.421552,	-0.386761,	-0.652516,	-0.703909,	0.995361,	-0.734733,	-0.656606,	0.471542,	-0.079135,	-0.690786,	0.222877,	0.381390,	-0.199683,	-0.917966,	-0.043672,	0.170080,	-0.966430,	0.884884,	0.137425,	0.565294,	-0.088778,	-0.574511,	0.905271,	-0.638173,	-0.587023,	-0.328532,	0.635853,	0.596606,	0.933348,	-0.074801,	-0.034089,	0.727409,	0.994079,	-0.065462,	0.711234,	0.128574,	0.008332,	0.851375,	-0.758538,	-0.784967,	-0.841792,	0.849666,	0.875607,	-0.491928,	0.447188,	-0.783319,	0.857906,	0.955016,	-0.008515,	0.729484,	0.480026,	-0.185217,	-0.387432,	-0.872005,	-0.091098,	0.423444,	0.791925,	-0.499863,	0.284951,	-0.850093,	0.052278,	0.387616,	0.651845,	-0.143467,	-0.172582,	-0.571947,	0.280740,	-0.824458,	-0.118381,	-0.655202,	-0.047578,	0.914670,	-0.656178,	0.096103,	0.757683,	-0.096286,	0.416303,	-0.002289,	-0.019440,	0.595996,	-0.177465,	-0.369671,	0.626270,	0.735160,	-0.944700,	-0.655324,	0.155309,	-0.598743,	-0.511582,
	0.176794,	0.987976,	-0.251259,	-0.586230,	0.985900,	0.340312,	-0.252663,	-0.932676,	-0.372417,	-0.044954,	-0.759697,	0.705557,	0.974731,	-0.710868,	0.631336,	-0.205481,	-0.402020,	0.721183,	-0.488021,	0.376263,	-0.080294,	0.340495,	0.544725,	0.671804,	-0.347453,	0.881466,	0.910825,	-0.013947,	-0.664296,	0.363750,	0.637684,	0.975707,	-0.218116,	-0.996887,	0.118076,	0.342448,	0.245827,	-0.046175,	0.132603,	0.015229,	-0.870724,	0.445540,	0.688650,	-0.117161,	0.032563,	0.877194,	-0.011383,	0.139805,	0.967101,	0.430647,	-0.160680,	0.307962,	-0.460250,	0.766350,	0.815424,	0.996765,	-0.076632,	0.363201,	-0.511277,	-0.536180,	0.423933,	-0.934202,	-0.962645,	-0.960692,	-0.541429,	-0.598804,	-0.454390,	-0.524522,	0.755913,	0.227271,	-0.692251,	0.284768,	-0.408185,	-0.723868,	-0.551439,	0.129002,	0.872433,	0.154454,	-0.827448,	0.321451,	0.877743,	0.363201,	-0.045381,	-0.495224,	-0.522446,	-0.100864,	-0.015412,	-0.432661,	0.632923,	-0.998291,	-0.821650,	-0.139744,	-0.005463,	0.606006,	0.067721,	-0.222449,	-0.587634,	0.065584,	0.881466,	0.762627,	-0.833064,	-0.292093,	0.130833,	-0.197851,	-0.263649,	0.783258,	-0.989013,	-0.528306,	-0.089328,	0.371563,	0.931761,	0.593921,	-0.933287,	-0.191687,	0.489120,	0.572802,	0.415204,	0.192602,	-0.808466,	-0.533799,	-0.966552,	-0.460311,	0.251808,	0.859371,	-0.504746,	-0.859249,	-0.241554,	-0.399029,	0.911435,	-0.308023,	0.538133,	-0.533921,	0.192358,	0.755669,	0.022065,	0.806268,	-0.653371,	0.115818,	0.429060,	-0.748650,	-0.373577,	0.591418,	0.577136,	-0.475936,	0.333415,	0.868099,	-0.363262,	-0.569628,	-0.902707,	-0.087313,	0.137852,	0.088351,	-0.559984,	-0.467757,	0.543504,	-0.542222,	0.436384,	0.639576,	0.701956,	-0.767266,
	0.286172,	-0.211219,	0.490768,	0.160558,	0.608020,	-0.457198,	0.964538,	-0.151708,	-0.731132,	-0.764702,	0.318522,	0.120762,	0.561205,	-0.310465,	-0.017731,	-0.008698,	0.539537,	0.457076,	-0.846248,	-0.691519,	0.331095,	-0.861873,	-0.912290,	-0.858760,	-0.769951,	-0.652943,	-0.549730,	-0.035432,	0.390728,	0.884030,	0.052828,	-0.291482,	0.929807,	0.676687,	0.276955,	0.733268,	-0.747795,	0.054353,	-0.496567,	-0.207923,	-0.588305,	0.915586,	0.857540,	0.045320,	-0.681204,	0.353862,	-0.416730,	-0.812433,	0.609546,	0.302286,	0.359172,	0.750725,	0.986084,	-0.239906,	0.867794,	0.645009,	0.843562,	0.164403,	-0.068270,	0.001312,	0.993408,	-0.531663,	-0.471541,	0.376385,	-0.702261,	-0.510971,	0.996887,	0.383892,	-0.974059,	0.087497,	0.746940,	-0.186193,	0.746391,	0.743095,	-0.213111,	0.302774,	0.566027,	-0.915097,	0.378582,	0.617237,	0.530076,	0.943297,	0.134190,	-0.387188,	-0.005585,	-0.517991,	0.867244,	0.932005,	-0.217200,	-0.023164,	0.509812,	0.502060,	-0.057711,	-0.200598,	-0.591296,	0.897031,	0.908261,	0.171728,	-0.687063,	-0.375347,	0.892575,	-0.747734,	0.365276,	-0.597644,	-0.693472,	-0.883297,	0.409833,	-0.516526,	-0.968383,	0.195776,	-0.070711,	0.097140,	-0.649403,	-0.267922,	0.922727,	-0.936644,	0.350749,	-0.179846,	-0.962340,	0.647328,	0.612842,	-0.410382,	-0.731071,	-0.286538,	0.997558,	-0.903684,	0.535752,	-0.756462,	0.341777,	-0.517075,	-0.549608,	0.280252,	-0.122105,	0.970946,	0.591357,	0.358928,	0.188391,	-0.752007,	-0.408002,	-0.509690,	-0.492721,	-0.188269,	0.358867,	-0.243263,	-0.817194,	0.833369,	0.731010,	-0.416669,	-0.887814,	0.103061,	-0.106723,	0.748589,	0.961180,	0.620350,	-0.143773,	-0.805475,	-0.017975,	0.390912,	0.314432,	-0.298318,
	-0.758660,	0.993530,	-0.803156,	-0.512131,	-0.929624,	0.478378,	0.220679,	0.797296,	-0.449446,	-0.839229,	-0.238319,	-0.461409,	0.846919,	-0.129063,	0.353435,	0.037935,	-0.798822,	-0.775933,	-0.872005,	0.966185,	-0.601611,	-0.528123,	0.510788,	0.505600,	-0.482406,	-0.500778,	-0.519028,	-0.183020,	0.780938,	0.527390,	0.712027,	0.869503,	0.312662,	-0.913327,	-0.097690,	-0.302713,	-0.379131,	0.821955,	0.611133,	-0.856319,	0.614368,	-0.308512,	0.909604,	0.156163,	-0.032991,	0.123875,	-0.838618,	-0.304971,	-0.357585,	0.693777,	-0.754936,	0.317728,	0.391522,	0.880245,	0.529282,	-0.498947,	0.034639,	-0.530992,	0.915342,	-0.235267,	-0.658071,	0.162450,	0.258217,	-0.342326,	-0.676382,	0.958434,	0.479476,	0.670705,	0.742790,	0.861568,	-0.316935,	0.136937,	-0.336589,	0.489059,	0.588916,	-0.816767,	-0.153417,	0.133396,	0.593982,	-0.204993,	-0.194189,	-0.155492,	-0.223975,	0.056612,	-0.663930,	-0.905881,	0.150426,	-0.370037,	-0.672781,	0.584765,	0.493576,	0.534410,	-0.324564,	-0.234657,	0.045442,	-0.710685,	-0.895077,	0.616871,	-0.596728,	-0.517258,	-0.288125,	-0.730522,	-0.080538,	0.828364,	0.043916,	0.014924,	-0.084628,	-0.227210,	-0.472823,	-0.724906,	-0.975463,	-0.282693,	0.053316,	0.090854,	0.977233,	-0.086337,	-0.460677,	0.692312,	0.138401,	-0.900266,	-0.727226,	-0.285806,	0.112827,	0.935179,	-0.145848,	-0.382122,	-0.271584,	-0.699881,	-0.450423,	0.882870,	0.711539,	0.520737,	-0.133335,	0.530686,	0.365703,	0.581591,	0.164586,	-0.457015,	-0.432783,	0.390118,	0.112766,	0.736992,	-0.610767,	-0.846370,	-0.190954,	-0.340190,	0.667531,	0.932432,	0.370891,	0.065828,	-0.180151,	0.430525,	0.811335,	0.537523,	-0.767510,	-0.911557,	0.013276,	-0.185827,	-0.475570,	-0.461776,
	-0.386822,	-0.610279,	0.004181,	-0.515793,	0.607959,	0.942442,	0.629688,	-0.927061,	-0.503464,	-0.840266,	-0.214820,	0.813044,	0.769890,	-0.480514,	-0.813471,	0.108615,	-0.440046,	-0.408979,	0.228187,	-0.531236,	-0.737236,	-0.581713,	-0.916013,	0.454756,	-0.054781,	-0.452620,	0.874569,	0.428571,	0.350627,	0.261147,	0.213294,	0.164281,	-0.686209,	0.583239,	0.443831,	-0.614490,	-0.600879,	0.614673,	0.881832,	0.291299,	0.573595,	-0.236000,	0.372478,	0.131871,	0.727531,	0.435652,	0.477523,	0.899045,	0.855403,	-0.263527,	0.603137,	-0.808832,	-0.290262,	0.765923,	0.382427,	0.317484,	-0.260598,	0.048982,	-0.376507,	-0.298135,	-0.873653,	0.677847,	-0.862789,	-0.348674,	-0.268044,	-0.278237,	0.755669,	0.549364,	-0.233863,	-0.530320,	-0.144932,	0.537767,	0.991882,	-0.932737,	0.694876,	0.749443,	-0.722892,	0.110874,	-0.114353,	0.154210,	0.307108,	0.760796,	0.298746,	-0.919309,	-0.731193,	-0.062899,	0.729301,	-0.523850,	0.321390,	0.159948,	-0.373699,	0.967589,	0.663381,	0.596118,	0.201086,	0.785150,	-0.989257,	0.876034,	-0.772820,	0.612903,	-0.702750,	-0.757561,	0.844783,	0.426252,	-0.590014,	-0.406476,	-0.319559,	0.381146,	-0.227271,	0.983215,	0.597034,	0.816157,	-0.410627,	0.140843,	-0.616260,	-0.569323,	-0.440291,	0.573168,	-0.298685,	-0.299051,	0.881039,	0.810541,	0.592456,	-0.402875,	-0.653188,	-0.639882,	-0.127903,	0.663808,	0.355754,	0.929380,	-0.291421,	0.525864,	-0.356609,	-0.519822,	-0.291116,	0.882931,	-0.450789,	0.679128,	-0.179907,	0.054720,	-0.369060,	-0.696890,	0.360149,	0.139195,	-0.560961,	0.166356,	-0.510422,	-0.152867,	0.264504,	0.127659,	-0.562426,	-0.925779,	-0.329203,	-0.256752,	-0.206153,	0.274819,	-0.375530,	0.126682,	-0.819941,	0.697989,
	0.035005,	-0.422468,	-0.387616,	0.550401,	0.517991,	-0.457137,	0.867794,	-0.853450,	0.193335,	0.472945,	-0.833125,	0.110569,	0.330668,	-0.866390,	-0.513962,	-0.309732,	-0.344523,	-0.060640,	-0.189856,	-0.751518,	-0.872188,	-0.133396,	0.639821,	-0.008881,	0.005707,	-0.486496,	0.065035,	0.997070,	0.006562,	-0.134983,	-0.282693,	0.610828,	-0.620960,	-0.671072,	-0.086276,	0.261269,	-0.303140,	0.602893,	-0.695669,	0.768548,	-0.811701,	-0.063570,	-0.663320,	0.201453,	-0.586657,	0.350261,	0.848384,	-0.651235,	-0.899533,	-0.625721,	-0.898312,	-0.134312,	-0.043184,	0.868770,	0.572191,	-0.840937,	0.263100,	-0.511216,	-0.197058,	-0.927061,	-0.934141,	-0.643178,	-0.361370,	0.437971,	0.781060,	-0.495773,	-0.849849,	0.545763,	-0.981628,	-0.355083,	0.564135,	-0.387493,	-0.556932,	0.843562,	-0.492416,	-0.707205,	0.483139,	0.640858,	-0.117038,	-0.693472,	-0.301675,	-0.801691,	-0.316935,	-0.757744,	0.621204,	0.025178,	-0.938719,	-0.401837,	-0.117100,	-0.150609,	0.967101,	-0.875851,	-0.562304,	-0.803583,	-0.338786,	0.527512,	-0.303568,	0.236915,	-0.578173,	-0.396649,	0.383526,	-0.533494,	0.754936,	-0.145177,	0.928709,	-0.219275,	0.420454,	-0.337626,	-0.793634,	-0.494003,	0.588488,	0.068026,	0.435896,	0.950987,	-0.564318,	0.234107,	-0.947142,	0.039399,	0.496323,	0.640858,	-0.632374,	-0.412091,	-0.920591,	-0.915281,	-0.180273,	-0.209571,	-0.935057,	-0.459883,	0.643422,	0.472579,	0.391400,	0.946532,	-0.244423,	0.677480,	0.547105,	-0.015839,	0.678823,	0.146947,	0.378399,	0.900571,	-0.687796,	0.258766,	-0.474044,	0.450179,	-0.637623,	0.984313,	-0.196631,	-0.990356,	-0.753349,	-0.572375,	-0.171056,	-0.067843,	0.282266,	0.509567,	-0.775628,	0.201209,	0.972289,	-0.641835,	-0.307962,	0.449019,
	-0.797540,	-0.030366,	-0.716239,	-0.600208,	-0.839595,	-0.299844,	-0.826350,	0.801874,	0.789727,	0.153478,	-0.752861,	-0.089877,	0.592151,	0.024445,	-0.181127,	-0.417829,	-0.410260,	0.462813,	-0.207556,	-0.950072,	-0.740349,	0.518540,	0.573351,	-0.570360,	-0.745903,	-0.767998,	0.048982,	-0.967284,	-0.281960,	-0.068575,	-0.052644,	0.539781,	0.016694,	-0.701163,	0.886715,	-0.899594,	0.686453,	0.769463,	0.430036,	-0.578356,	0.420026,	0.824396,	0.455000,	0.906491,	0.900082,	-0.258828,	-0.846675,	0.906186,	-0.707816,	-0.636464,	-0.028230,	-0.851619,	-0.788568,	-0.546983,	0.806146,	-0.596667,	-0.026765,	-0.814570,	-0.237281,	-0.549181,	0.942320,	-0.645741,	0.798090,	-0.589526,	0.791681,	-0.156468,	-0.449751,	-0.501877,	0.484542,	-0.067354,	0.674062,	-0.730155,	-0.208960,	-0.003998,	0.992615,	-0.582629,	0.152562,	0.159459,	-0.222144,	0.176427,	-0.293374,	0.476180,	0.472701,	-0.589099,	-0.715812,	0.184912,	-0.833552,	0.435774,	-0.807978,	0.612537,	0.137486,	0.639637,	-0.407270,	-0.716422,	-0.225929,	0.971984,	0.295389,	-0.200476,	-0.813044,	-0.644887,	0.768120,	-0.950316,	0.826167,	0.085177,	0.186316,	0.317362,	-0.586840,	0.283181,	0.328593,	-0.157872,	0.503403,	-0.540208,	-0.867672,	-0.597461,	0.989074,	-0.743950,	-0.277444,	0.480209,	0.856075,	-0.578173,	0.725456,	0.568468,	0.507859,	-0.904355,	0.679739,	-0.811457,	0.967650,	-0.552843,	0.358501,	0.175085,	-0.727958,	0.746147,	-0.187048,	-0.207129,	0.369244,	-0.081027,	-0.047822,	-0.750298,	-0.167516,	-0.343303,	-0.530320,	-0.835200,	0.703604,	-0.864254,	0.931150,	0.557482,	0.777215,	-0.585315,	0.833613,	-0.082430,	-0.361003,	-0.430769,	-0.549181,	0.920896,	-0.229347,	0.628040,	-0.724052,	0.350993,	-0.966552,	-0.628163,
	-0.126011,	0.791009,	0.843074,	-0.941771,	-0.042451,	-0.352825,	-0.651296,	-0.865108,	0.497177,	-0.932798,	-0.071261,	-0.996704,	-0.320109,	0.315470,	0.314432,	-0.103793,	-0.472701,	-0.832270,	0.655995,	-0.069674,	0.986938,	-0.111972,	-0.157994,	0.397870,	-0.691763,	0.349956,	0.385540,	0.358379,	0.516709,	-0.134983,	-0.811151,	-0.405866,	0.797540,	0.280618,	0.499985,	0.991394,	-0.397320,	-0.090182,	0.372539,	0.409345,	0.292642,	0.856136,	0.942686,	-0.899167,	-0.874386,	-0.705435,	-0.165563,	0.745537,	0.407697,	-0.726920,	-0.993286,	0.158910,	0.614734,	-0.404706,	0.354228,	-0.259743,	-0.699881,	0.348430,	0.374371,	0.720695,	-0.400311,	0.637440,	-0.786309,	-0.725333,	0.147130,	0.089633,	0.405560,	0.557543,	-0.788202,	-0.309244,	0.611072,	0.731010,	0.872188,	0.515427,	-0.322550,	0.039644,	0.035920,	-0.084872,	0.324686,	-0.999512,	0.121616,	-0.274514,	-0.226661,	0.768853,	0.211646,	0.055513,	0.627308,	-0.258522,	-0.508652,	-0.778619,	-0.678396,	-0.538438,	-0.214820,	-0.612537,	-0.549791,	-0.113437,	0.003327,	0.476547,	0.284829,	-0.918516,	-0.689200,	-0.087680,	-0.202734,	-0.598865,	0.831965,	0.756523,	0.498947,	-0.777581,	0.702322,	-0.197424,	-0.591357,	0.290750,	0.280862,	0.189489,	0.462203,	-0.258828,	0.334758,	0.097201,	0.675466,	0.859004,	-0.990600,	0.086581,	0.374310,	-0.359844,	0.395978,	0.646840,	0.803217,	-0.784539,	-0.490768,	0.511948,	-0.574633,	-0.799493,	0.488021,	-0.690664,	0.226478,	0.033540,	-0.169286,	-0.896725,	-0.664846,	-0.635365,	-0.521226,	0.394940,	-0.727592,	0.557970,	-0.440229,	-0.857845,	0.142003,	0.369305,	-0.396283,	0.361492,	-0.924802,	-0.137120,	0.044221,	0.874142,	0.241859,	-0.371990,	0.817316,	0.759819,	0.739982,	-0.640431,
	0.870418,	0.079257,	0.677358,	0.864254,	-0.605762,	0.429304,	0.756645,	0.554491,	0.589709,	-0.107700,	-0.322977,	0.494186,	0.781854,	0.942747,	0.664541,	0.056612,	-0.304788,	-0.126926,	-0.555773,	-0.740837,	0.700735,	-0.698050,	0.965880,	-0.164403,	-0.151769,	0.326762,	-0.803766,	-0.890866,	0.496872,	-0.116855,	-0.709830,	0.729545,	-0.645131,	-0.125767,	0.453291,	-0.665090,	0.743034,	-0.368084,	0.808222,	-0.797235,	0.892514,	0.272378,	0.577624,	-0.048860,	-0.909543,	0.508896,	0.895993,	-0.646413,	-0.513596,	0.484237,	0.562670,	0.329325,	0.370281,	-0.815180,	0.049043,	0.172216,	0.736381,	-0.000397,	-0.928037,	-0.919797,	0.944945,	-0.013947,	-0.953795,	0.048433,	-0.706778,	-0.594775,	0.728324,	-0.812799,	-0.689871,	-0.910398,	0.363994,	0.529588,	-0.414655,	0.204932,	0.652760,	0.388592,	0.946226,	-0.031037,	-0.159642,	-0.671743,	0.795221,	-0.109775,	-0.746330,	0.810663,	-0.580493,	0.088656,	0.588855,	0.580248,	0.086093,	0.260414,	-0.734001,	-0.149632,	-0.265725,	0.850276,	-0.837153,	0.351970,	0.078585,	0.993042,	-0.960021,	0.308390,	-0.066012,	0.787347,	-0.030488,	-0.601245,	0.576952,	0.463973,	0.080538,	-0.228248,	0.953063,	0.010834,	-0.066378,	-0.827387,	0.545946,	-0.181921,	0.836177,	-0.753471,	0.718192,	-0.095492,	-0.588000,	-0.920408,	0.337382,	0.289285,	0.737846,	-0.959044,	0.500229,	0.069979,	-0.642567,	0.988220,	0.166417,	-0.229163,	0.488510,	-0.101901,	-0.484542,	0.522324,	0.732658,	0.986633,	0.838496,	0.635853,	0.601856,	-0.621570,	-0.222510,	-0.864925,	0.174352,	0.390973,	0.725456,	0.807367,	0.191321,	-0.506943,	-0.801691,	0.336100,	-0.092318,	0.003021,	0.992615,	0.078890,	0.009369,	-0.413678,	0.940428,	-0.947996,	-0.090365,	-0.382183,
	-0.925169,	-0.315470,	-0.263588,	0.468612,	-0.982055,	-0.095553,	0.323710,	0.781793,	0.403607,	-0.880551,	-0.480209,	-0.200964,	0.148534,	-0.345256,	0.123631,	0.800226,	0.383038,	0.210120,	-0.236854,	0.718680,	-0.145421,	0.899411,	0.027436,	-0.004669,	0.616749,	0.434431,	-0.834834,	-0.267067,	0.815180,	-0.984436,	-0.338176,	0.214026,	-0.615528,	-0.507553,	-0.991272,	-0.155492,	-0.532701,	0.356182,	0.975768,	0.585620,	0.368572,	-0.873714,	-0.299844,	0.936399,	0.857662,	-0.304849,	-0.095126,	0.529771,	-0.369610,	0.190832,	-0.442061,	-0.595752,	-0.255898,	0.923215,	0.285562,	0.014130,	0.837214,	0.973632,	-0.147862,	-0.960204,	-0.052828,	0.992431,	0.018708,	-0.937620,	0.738334,	0.765374,	0.093173,	-0.836848,	-0.048128,	-0.887753,	-0.515915,	0.511887,	0.892087,	0.680349,	-0.428877,	0.005768,	0.758965,	-0.805597,	0.204260,	0.021516,	-0.357952,	-0.273293,	-0.855464,	-0.656667,	-0.013520,	-0.451582,	-0.241371,	-0.670583,	0.343974,	0.126560,	-0.720267,	0.378643,	0.221778,	-0.173254,	0.947691,	0.761101,	-0.158055,	-0.113498,	0.339824,	0.874203,	-0.377422,	-0.779900,	-0.793329,	0.986877,	-0.804804,	0.617969,	-0.876583,	-0.465011,	0.768792,	-0.096957,	0.270241,	0.029817,	0.654714,	0.607166,	-0.345683,	-0.358135,	-0.236122,	-0.271157,	0.085849,	-0.476241,	0.889462,	-0.864071,	0.220069,	-0.066561,	-0.413312,	0.175329,	0.978454,	0.220801,	0.463424,	0.051790,	0.661183,	0.739799,	-0.307169,	-0.460433,	0.063936,	0.749321,	-0.438215,	0.588000,	-0.089694,	-0.635487,	-0.133702,	-0.616138,	-0.086215,	-0.378399,	-0.032380,	-0.565722,	-0.218909,	0.718253,	0.320902,	0.230506,	-0.531175,	0.492111,	-0.711417,	0.057039,	-0.992615,	-0.799188,	0.052156,	0.507370,	-0.796808,	0.664602,
	-0.566698,	-0.730583,	-0.467574,	-0.165380,	-0.561571,	0.743095,	0.538743,	0.850459,	-0.662099,	-0.948057,	-0.952574,	0.647084,	-0.907163,	-0.987487,	-0.491440,	0.176366,	-0.057222,	-0.377361,	-0.218787,	0.303446,	0.964721,	-0.367962,	0.671804,	0.442061,	-0.581103,	-0.242592,	-0.461104,	0.989929,	-0.309061,	-0.895444,	-0.723075,	-0.371868,	0.644704,	0.360271,	0.991150,	0.546068,	0.197852,	-0.684622,	-0.323527,	0.654103,	0.932371,	-0.716239,	-0.786920,	-0.152013,	-0.447371,	-0.023041,	-0.009430,	-0.614185,	0.004303,	-0.600696,	-0.526475,	-0.559069,	-0.935118,	0.324564,	-0.978698,	-0.106479,	0.220252,	-0.082736,	-0.726066,	-0.577868,	0.638295,	0.061312,	-0.583178,	0.959655,	-0.946898,	0.957640,	0.637440,	0.573656,	-0.628163,	-0.446028,	-0.914914,	-0.163488,	-0.183813,	-0.630177,	0.648000,	0.745170,	0.412030,	-0.722343,	0.858333,	-0.745598,	0.639149,	-0.196265,	0.239418,	0.486740,	0.053621,	0.511643,	0.406659,	-0.320902,	-0.304910,	-0.970702,	-0.765557,	-0.068270,	-0.908078,	-0.715751,	0.402692,	0.819697,	0.676748,	-0.492782,	-0.366131,	0.929746,	0.423933,	-0.431440,	0.935057,	0.386517,	0.523240,	0.209143,	-0.844722,	0.428877,	0.900021,	-0.272378,	0.172826,	0.099155,	-0.603442,	0.688101,	-0.977294,	-0.890866,	-0.574511,	0.209388,	-0.720573,	0.943785,	0.908383,	0.398724,	0.005036,	-0.734794,	-0.687857,	0.492599,	-0.423261,	-0.318644,	0.595996,	-0.732597,	0.705619,	-0.061129,	0.879940,	-0.718314,	-0.040803,	0.605335,	0.649586,	-0.486984,	0.100864,	-0.698111,	0.308206,	-0.047700,	0.557665,	0.549303,	0.888485,	0.716910,	0.329752,	0.289346,	0.737663,	-0.753533,	0.653798,	-0.854915,	-0.012543,	0.143101,	-0.267434,	-0.518296,	-0.378277,	-0.781915,	0.843867,	0.330424,
	0.954039,	0.309000,	0.140172,	-0.761711,	0.328166,	0.428083,	-0.547105,	-0.893368,	0.853999,	-0.194494,	0.412763,	-0.920347,	-0.009552,	0.389691,	-0.801202,	-0.453230,	0.789056,	-0.632923,	0.229408,	0.320597,	-0.390301,	-0.736015,	0.106357,	0.053072,	0.122471,	-0.807367,	0.126560,	-0.047212,	0.405866,	0.805048,	0.671255,	-0.135044,	0.956359,	-0.484725,	-0.212317,	-0.222144,	0.419538,	0.555162,	-0.725883,	0.816950,	0.857662,	0.422895,	0.581835,	0.790033,	-0.636647,	-0.709708,	-0.155126,	0.346049,	-0.164891,	0.928404,	0.352947,	0.808954,	-0.276223,	-0.284463,	-0.223609,	-0.249733,	-0.434309,	-0.709891,	0.458968,	-0.637501,	0.112339,	0.410077,	0.088717,	-0.304361,	0.871090,	0.582080,	-0.939268,	-0.180334,	0.867550,	-0.977294,	-0.156651,	0.974792,	-0.555834,	-0.485824,	0.661183,	0.773247,	-0.094028,	0.717155,	0.806940,	0.513962,	-0.173925,	0.502792,	-0.105686,	0.672842,	0.824580,	-0.132725,	0.365459,	0.631642,	-0.367901,	0.990661,	-0.435774,	-0.292581,	-0.748589,	-0.997497,	0.688650,	-0.454390,	0.028718,	0.017670,	0.934507,	0.938414,	-0.552171,	-0.996826,	0.143345,	-0.868526,	0.459883,	0.040803,	0.266640,	0.682180,	-0.840266,	0.545640,	0.958373,	-0.070101,	-0.376263,	0.004730,	-0.390240,	0.143223,	0.719169,	0.797784,	-0.862239,	-0.595386,	0.699210,	-0.338115,	-0.160619,	0.296670,	0.395856,	-0.635914,	0.625660,	-0.549486,	0.822443,	-0.857173,	-0.053560,	0.021271,	-0.000946,	-0.518540,	-0.280374,	-0.849178,	0.813349,	-0.223304,	0.576403,	-0.517869,	0.728691,	0.463851,	-0.264748,	0.785760,	-0.847652,	0.161412,	-0.181738,	0.763543,	-0.722892,	-0.601917,	-0.080050,	-0.910581,	0.206885,	-0.515976,	-0.756157,	-0.248207,	0.180883,	0.089084,	0.617115,	-0.241554,
	0.707694,	0.090915,	0.196753,	-0.731986,	0.421857,	-0.745170,	0.680105,	-0.790826,	0.475814,	-0.691763,	0.331095,	-0.549058,	0.279214,	-0.027802,	-0.863765,	-0.414045,	-0.601184,	0.512375,	0.401105,	-0.610279,	0.430647,	0.371990,	-0.898801,	-0.981567,	0.657582,	-0.550279,	-0.700308,	0.006928,	-0.695791,	-0.415937,	-0.057161,	-0.869930,	0.202612,	-0.192358,	-0.652028,	0.190832,	0.679800,	0.933226,	-0.304971,	-0.204810,	0.480941,	0.034394,	-0.165929,	0.178991,	-0.459578,	0.383770,	-0.277749,	-0.852657,	0.412397,	-0.590503,	0.802057,	0.190405,	0.174413,	0.235450,	-0.366802,	0.836848,	-0.383770,	-0.635853,	-0.908750,	0.308573,	0.526231,	0.068453,	0.445051,	0.538621,	0.887814,	0.051424,	0.625355,	-0.385540,	0.798639,	0.938902,	-0.002472,	-0.289773,	0.924986,	0.166601,	0.951048,	0.569079,	0.303873,	0.823908,	0.616932,	0.599353,	-0.695120,	0.017548,	0.027558,	0.646290,	0.565416,	-0.682913,	-0.969970,	0.501938,	-0.289712,	-0.154942,	-0.734428,	-0.784112,	0.669546,	-0.426069,	0.528611,	-0.730399,	-0.593799,	-0.607044,	0.816279,	-0.323954,	0.866756,	-0.493210,	-0.617115,	0.067965,	0.966613,	0.728752,	-0.889889,	0.836543,	0.423444,	0.230689,	-0.493881,	-0.616138,	0.250648,	0.313456,	0.646474,	-0.449019,	-0.276589,	-0.241920,	-0.631581,	0.283853,	0.629749,	0.322550,	0.032197,	0.600452,	0.619495,	-0.055330,	-0.839290,	0.921262,	-0.536485,	-0.784417,	0.270974,	-0.174657,	-0.964965,	0.684317,	0.209082,	0.294656,	0.826960,	-0.442793,	-0.697867,	0.509140,	-0.184301,	-0.645436,	0.638600,	-0.744682,	0.486496,	-0.913205,	0.790094,	-0.989563,	-0.169530,	-0.487960,	-0.712516,	0.765069,	-0.873104,	-0.960753,	-0.837092,	-0.353740,	-0.676199,	0.837519,	-0.128819,	-0.595813,
	-0.172277,	-0.284829,	0.901975,	0.824580,	-0.483016,	0.331278,	-0.603565,	0.129185,	-0.210242,	-0.699026,	0.080294,	0.427351,	0.459639,	0.758660,	0.825251,	0.280557,	0.311747,	-0.060335,	0.152257,	0.443098,	-0.868831,	0.345073,	-0.011078,	0.840693,	-0.983154,	-0.949522,	-0.007599,	0.849971,	-0.207251,	-0.278420,	0.752373,	0.941588,	0.329447,	-0.100070,	0.184423,	0.748405,	0.588366,	0.120029,	0.427961,	-0.377300,	0.201209,	-0.578478,	-0.439741,	0.743889,	0.396771,	0.818293,	-0.560472,	0.838984,	-0.911863,	-0.713492,	-0.010651,	0.579882,	-0.067232,	-0.164220,	-0.763176,	-0.281899,	-0.822993,	0.223853,	-0.582507,	0.020661,	-0.900937,	-0.121250,	0.458968,	0.069002,	-0.138340,	-0.409345,	-0.844172,	0.984069,	0.587573,	-0.464583,	-0.651051,	-0.860897,	-0.530015,	0.192724,	-0.579699,	0.924131,	-0.268960,	-0.278542,	0.417707,	-0.377544,	-0.759880,	0.354473,	-0.879818,	-0.535752,	0.604846,	-0.624744,	-0.642079,	0.917478,	-0.452742,	-0.760552,	-0.102329,	0.279946,	0.378033,	0.403180,	0.208289,	-0.365337,	0.380047,	-0.579272,	0.416486,	0.231178,	-0.084567,	-0.125156,	0.767449,	-0.645436,	0.067293,	0.701041,	0.901181,	-0.254128,	0.629078,	-0.531236,	0.258156,	-0.364544,	0.254433,	-0.816950,	-0.073763,	0.452254,	-0.420576,	0.167150,	-0.758660,	0.271218,	-0.869991,	-0.409955,	-0.545030,	0.061800,	0.827387,	0.201575,	-0.219886,	0.799249,	0.902646,	0.835932,	0.128819,	0.502060,	-0.964599,	0.248207,	-0.146275,	-0.742119,	-0.473189,	0.845271,	0.806085,	-0.700552,	-0.680227,	-0.126865,	0.021943,	0.194800,	0.680410,	0.624378,	0.351177,	0.212256,	-0.648793,	-0.772515,	0.338786,	-0.075594,	-0.009674,	-0.419172,	-0.326151,	-0.887143,	-0.292703,	-0.006806,	-0.483261,	-0.964293,
	-0.490097,	0.094455,	0.017975,	-0.878658,	0.473434,	-0.422224,	0.340861,	0.150304,	0.444807,	-0.663076,	-0.499374,	0.987854,	0.094699,	0.560045,	-0.667409,	0.929991,	0.129795,	0.342875,	-0.098605,	0.725211,	0.477462,	-0.614978,	0.664357,	0.334574,	-0.744438,	0.329508,	-0.298746,	0.492294,	0.340678,	0.309854,	0.322977,	0.129917,	-0.655019,	0.267190,	-0.628529,	0.726371,	0.817743,	0.598559,	0.524094,	-0.354350,	0.479843,	-0.299966,	0.913205,	-0.473861,	-0.692190,	0.967467,	0.376202,	-0.217261,	-0.723014,	0.815729,	-0.354167,	-0.715445,	-0.422468,	-0.719230,	0.794793,	0.271645,	-0.884274,	-0.233924,	0.246681,	0.571520,	0.112644,	-0.504318,	-0.333964,	0.179907,	0.613575,	-0.762566,	-0.960448,	-0.733329,	0.719230,	-0.142308,	-0.738639,	-0.329875,	0.353130,	0.270852,	0.534471,	0.942381,	-0.624378,	0.345927,	-0.098788,	-0.992431,	-0.141148,	-0.667653,	0.215735,	0.496384,	-0.666189,	-0.631642,	-0.130894,	0.818232,	0.823176,	0.633412,	-0.417951,	-0.965270,	0.471053,	-0.292459,	-0.424238,	-0.403668,	0.583483,	-0.298990,	-0.565233,	0.004547,	0.891415,	-0.284768,	-0.026765,	0.462569,	-0.151585,	0.198401,	-0.582446,	0.576769,	0.777215,	-0.241615,	-0.781243,	-0.828608,	0.674612,	-0.005097,	-0.194983,	0.279031,	0.490829,	-0.086032,	-0.410871,	-0.630726,	0.692923,	0.486557,	-0.458113,	0.878536,	0.926145,	0.914609,	0.644459,	-0.897641,	-0.414533,	-0.833796,	0.532273,	-0.485336,	0.109958,	0.343547,	0.642445,	0.574206,	-0.188086,	-0.555895,	0.178381,	-0.917844,	0.053926,	0.080355,	0.202307,	-0.846492,	-0.413984,	-0.282083,	0.169958,	-0.136509,	-0.144383,	0.996155,	0.218909,	-0.367595,	0.102329,	-0.306742,	-0.476852,	0.411908,	-0.949461,	0.898556,	0.026887,	-0.266335,
	-0.987487,	-0.046175,	-0.130528,	-0.315714,	-0.786554,	-0.272683,	-0.185522,	0.868831,	0.152257,	0.781854,	0.995056,	0.423933,	-0.190100,	-0.000153,	-0.712149,	0.145970,	-0.482467,	0.228431,	0.629505,	-0.206824,	0.297952,	0.505966,	0.585192,	-0.372417,	-0.508652,	-0.566393,	0.485336,	-0.743522,	0.479720,	-0.746391,	-0.559740,	0.838313,	-0.679800,	-0.802911,	0.546617,	-0.286905,	-0.897397,	-0.335917,	0.597217,	0.522629,	-0.159337,	-0.201941,	-0.391827,	-0.120090,	0.711600,	0.017304,	-0.525926,	-0.347026,	0.455977,	0.065951,	0.064913,	-0.075839,	0.749931,	0.147130,	0.077059,	-0.312723,	0.362590,	-0.299600,	0.950377,	0.346416,	0.911252,	-0.613330,	-0.835505,	0.076937,	0.026643,	0.841914,	-0.773797,	0.113315,	0.741020,	-0.236366,	0.661122,	-0.975524,	0.910886,	0.891781,	-0.678823,	0.040376,	-0.512009,	0.445784,	0.321879,	-0.508469,	-0.549486,	0.582629,	0.920103,	-0.575243,	0.206092,	-0.564318,	0.646168,	0.456648,	-0.719291,	-0.701224,	-0.997253,	-0.071810,	0.105441,	0.516892,	0.041780,	-0.577258,	-0.287637,	-0.353496,	0.133457,	0.709647,	-0.845698,	-0.551622,	0.239051,	0.175634,	0.458968,	-0.725822,	0.999756,	0.808222,	0.930723,	-0.589404,	-0.045137,	-0.208960,	0.613147,	-0.057100,	-0.798700,	0.776055,	-0.276345,	-0.299722,	0.806757,	0.893063,	-0.126560,	-0.153600,	0.289468,	-0.439131,	-0.114963,	-0.324076,	-0.523057,	-0.838618,	0.020417,	-0.818293,	-0.944090,	0.639210,	-0.569018,	-0.046846,	0.126438,	0.089816,	0.643666,	0.969481,	-0.928037,	-0.601306,	-0.106418,	0.849971,	-0.941038,	0.993408,	-0.881954,	-0.876156,	0.477462,	-0.228675,	0.422224,	0.082064,	-0.364605,	0.266518,	0.830500,	-0.226600,	0.019929,	0.116123,	0.135350,	-0.291848,	-0.562792,	-0.109043,
